digraph Tree {
node [shape=box] ;
0 [label="X[4274] <= 0.038\nentropy = 0.493\nsamples = 900\nvalue = [803, 97]"] ;
1 [label="X[7376] <= 0.015\nentropy = 0.263\nsamples = 808\nvalue = [772, 36]"] ;
0 -> 1 [labeldistance=2.5, labelangle=45, headlabel="True"] ;
2 [label="X[5897] <= 0.066\nentropy = 0.197\nsamples = 754\nvalue = [731, 23]"] ;
1 -> 2 ;
3 [label="X[7901] <= 0.06\nentropy = 0.177\nsamples = 751\nvalue = [731, 20]"] ;
2 -> 3 ;
4 [label="X[3251] <= 0.157\nentropy = 0.144\nsamples = 733\nvalue = [718, 15]"] ;
3 -> 4 ;
5 [label="entropy = 0.114\nsamples = 721\nvalue = [710, 11]"] ;
4 -> 5 ;
6 [label="entropy = 0.918\nsamples = 12\nvalue = [8, 4]"] ;
4 -> 6 ;
7 [label="X[6653] <= 0.044\nentropy = 0.852\nsamples = 18\nvalue = [13, 5]"] ;
3 -> 7 ;
8 [label="entropy = 0.567\nsamples = 15\nvalue = [13, 2]"] ;
7 -> 8 ;
9 [label="entropy = 0.0\nsamples = 3\nvalue = [0, 3]"] ;
7 -> 9 ;
10 [label="entropy = 0.0\nsamples = 3\nvalue = [0, 3]"] ;
2 -> 10 ;
11 [label="X[6434] <= 0.023\nentropy = 0.796\nsamples = 54\nvalue = [41, 13]"] ;
1 -> 11 ;
12 [label="X[8945] <= 0.018\nentropy = 0.68\nsamples = 50\nvalue = [41, 9]"] ;
11 -> 12 ;
13 [label="X[5849] <= 0.008\nentropy = 0.906\nsamples = 28\nvalue = [19, 9]"] ;
12 -> 13 ;
14 [label="entropy = 0.738\nsamples = 24\nvalue = [19, 5]"] ;
13 -> 14 ;
15 [label="entropy = 0.0\nsamples = 4\nvalue = [0, 4]"] ;
13 -> 15 ;
16 [label="entropy = 0.0\nsamples = 22\nvalue = [22, 0]"] ;
12 -> 16 ;
17 [label="entropy = 0.0\nsamples = 4\nvalue = [0, 4]"] ;
11 -> 17 ;
18 [label="X[8917] <= 0.012\nentropy = 0.922\nsamples = 92\nvalue = [31, 61]"] ;
0 -> 18 [labeldistance=2.5, labelangle=-45, headlabel="False"] ;
19 [label="X[8945] <= 0.024\nentropy = 0.96\nsamples = 34\nvalue = [21, 13]"] ;
18 -> 19 ;
20 [label="X[7464] <= 0.067\nentropy = 0.971\nsamples = 20\nvalue = [8, 12]"] ;
19 -> 20 ;
21 [label="X[9267] <= 0.016\nentropy = 0.961\nsamples = 13\nvalue = [8, 5]"] ;
20 -> 21 ;
22 [label="entropy = 0.0\nsamples = 5\nvalue = [5, 0]"] ;
21 -> 22 ;
23 [label="entropy = 0.954\nsamples = 8\nvalue = [3, 5]"] ;
21 -> 23 ;
24 [label="entropy = 0.0\nsamples = 7\nvalue = [0, 7]"] ;
20 -> 24 ;
25 [label="X[5595] <= 0.082\nentropy = 0.371\nsamples = 14\nvalue = [13, 1]"] ;
19 -> 25 ;
26 [label="entropy = 0.0\nsamples = 13\nvalue = [13, 0]"] ;
25 -> 26 ;
27 [label="entropy = 0.0\nsamples = 1\nvalue = [0, 1]"] ;
25 -> 27 ;
28 [label="X[2186] <= 0.056\nentropy = 0.663\nsamples = 58\nvalue = [10, 48]"] ;
18 -> 28 ;
29 [label="X[1477] <= 0.049\nentropy = 0.55\nsamples = 55\nvalue = [7, 48]"] ;
28 -> 29 ;
30 [label="X[5476] <= 0.097\nentropy = 0.391\nsamples = 52\nvalue = [4, 48]"] ;
29 -> 30 ;
31 [label="entropy = 0.242\nsamples = 50\nvalue = [2, 48]"] ;
30 -> 31 ;
32 [label="entropy = 0.0\nsamples = 2\nvalue = [2, 0]"] ;
30 -> 32 ;
33 [label="entropy = 0.0\nsamples = 3\nvalue = [3, 0]"] ;
29 -> 33 ;
34 [label="entropy = 0.0\nsamples = 3\nvalue = [3, 0]"] ;
28 -> 34 ;
}
