digraph Tree {
node [shape=box] ;
0 [label="X[27963] <= 0.11\nentropy = 0.315\nsamples = 9000\nvalue = [8487, 513]"] ;
1 [label="X[36394] <= 0.001\nentropy = 0.274\nsamples = 8901\nvalue = [8481, 420]"] ;
0 -> 1 [labeldistance=2.5, labelangle=45, headlabel="True"] ;
2 [label="X[9876] <= 0.103\nentropy = 0.444\nsamples = 3805\nvalue = [3454, 351]"] ;
1 -> 2 ;
3 [label="X[35469] <= 0.005\nentropy = 0.411\nsamples = 3750\nvalue = [3441, 309]"] ;
2 -> 3 ;
4 [label="X[35463] <= 0.008\nentropy = 0.472\nsamples = 2978\nvalue = [2677, 301]"] ;
3 -> 4 ;
5 [label="X[33246] <= 0.002\nentropy = 0.512\nsamples = 2643\nvalue = [2342, 301]"] ;
4 -> 5 ;
6 [label="X[22229] <= 0.07\nentropy = 0.572\nsamples = 2127\nvalue = [1839, 288]"] ;
5 -> 6 ;
7 [label="X[33973] <= 0.01\nentropy = 0.54\nsamples = 2077\nvalue = [1820, 257]"] ;
6 -> 7 ;
8 [label="X[31589] <= 0.009\nentropy = 0.572\nsamples = 1898\nvalue = [1641, 257]"] ;
7 -> 8 ;
9 [label="X[11139] <= 0.116\nentropy = 0.601\nsamples = 1755\nvalue = [1498, 257]"] ;
8 -> 9 ;
10 [label="X[24870] <= 0.005\nentropy = 0.581\nsamples = 1731\nvalue = [1491, 240]"] ;
9 -> 10 ;
11 [label="X[33287] <= 0.017\nentropy = 0.665\nsamples = 1166\nvalue = [964, 202]"] ;
10 -> 11 ;
12 [label="X[22093] <= 0.035\nentropy = 0.685\nsamples = 1108\nvalue = [906, 202]"] ;
11 -> 12 ;
13 [label="X[19223] <= 0.005\nentropy = 0.704\nsamples = 1057\nvalue = [855, 202]"] ;
12 -> 13 ;
14 [label="X[22860] <= 0.013\nentropy = 0.725\nsamples = 997\nvalue = [796, 201]"] ;
13 -> 14 ;
15 [label="X[6260] <= 0.16\nentropy = 0.741\nsamples = 959\nvalue = [758, 201]"] ;
14 -> 15 ;
16 [label="X[36172] <= 0.16\nentropy = 0.73\nsamples = 951\nvalue = [757, 194]"] ;
15 -> 16 ;
17 [label="X[31708] <= 0.148\nentropy = 0.722\nsamples = 946\nvalue = [757, 189]"] ;
16 -> 17 ;
18 [label="X[1601] <= 0.099\nentropy = 0.706\nsamples = 931\nvalue = [752, 179]"] ;
17 -> 18 ;
19 [label="X[16685] <= 0.138\nentropy = 0.689\nsamples = 913\nvalue = [745, 168]"] ;
18 -> 19 ;
20 [label="X[16851] <= 0.159\nentropy = 0.677\nsamples = 906\nvalue = [744, 162]"] ;
19 -> 20 ;
21 [label="X[34964] <= 0.131\nentropy = 0.669\nsamples = 902\nvalue = [744, 158]"] ;
20 -> 21 ;
22 [label="X[36520] <= 0.011\nentropy = 0.646\nsamples = 872\nvalue = [728, 144]"] ;
21 -> 22 ;
23 [label="X[1002] <= 0.09\nentropy = 0.668\nsamples = 825\nvalue = [681, 144]"] ;
22 -> 23 ;
24 [label="X[29772] <= 0.19\nentropy = 0.642\nsamples = 796\nvalue = [666, 130]"] ;
23 -> 24 ;
25 [label="X[16540] <= 0.232\nentropy = 0.632\nsamples = 792\nvalue = [666, 126]"] ;
24 -> 25 ;
26 [label="X[32956] <= 0.189\nentropy = 0.622\nsamples = 788\nvalue = [666, 122]"] ;
25 -> 26 ;
27 [label="X[21203] <= 0.201\nentropy = 0.614\nsamples = 785\nvalue = [666, 119]"] ;
26 -> 27 ;
28 [label="X[21336] <= 0.648\nentropy = 0.606\nsamples = 782\nvalue = [666, 116]"] ;
27 -> 28 ;
29 [label="X[25611] <= 0.236\nentropy = 0.597\nsamples = 779\nvalue = [666, 113]"] ;
28 -> 29 ;
30 [label="X[16872] <= 0.182\nentropy = 0.589\nsamples = 776\nvalue = [666, 110]"] ;
29 -> 30 ;
31 [label="X[8357] <= 0.135\nentropy = 0.58\nsamples = 773\nvalue = [666, 107]"] ;
30 -> 31 ;
32 [label="X[7048] <= 0.104\nentropy = 0.571\nsamples = 770\nvalue = [666, 104]"] ;
31 -> 32 ;
33 [label="X[11956] <= 0.017\nentropy = 0.555\nsamples = 758\nvalue = [660, 98]"] ;
32 -> 33 ;
34 [label="X[14382] <= 0.022\nentropy = 0.57\nsamples = 727\nvalue = [629, 98]"] ;
33 -> 34 ;
35 [label="X[30787] <= 0.021\nentropy = 0.585\nsamples = 698\nvalue = [600, 98]"] ;
34 -> 35 ;
36 [label="X[16348] <= 0.506\nentropy = 0.599\nsamples = 672\nvalue = [574, 98]"] ;
35 -> 36 ;
37 [label="X[19035] <= 0.229\nentropy = 0.593\nsamples = 670\nvalue = [574, 96]"] ;
36 -> 37 ;
38 [label="X[15506] <= 0.155\nentropy = 0.586\nsamples = 668\nvalue = [574, 94]"] ;
37 -> 38 ;
39 [label="X[28259] <= 0.193\nentropy = 0.579\nsamples = 666\nvalue = [574, 92]"] ;
38 -> 39 ;
40 [label="X[28661] <= 0.17\nentropy = 0.572\nsamples = 664\nvalue = [574, 90]"] ;
39 -> 40 ;
41 [label="X[31774] <= 0.25\nentropy = 0.565\nsamples = 662\nvalue = [574, 88]"] ;
40 -> 41 ;
42 [label="X[1007] <= 0.589\nentropy = 0.558\nsamples = 660\nvalue = [574, 86]"] ;
41 -> 42 ;
43 [label="X[13148] <= 0.113\nentropy = 0.551\nsamples = 658\nvalue = [574, 84]"] ;
42 -> 43 ;
44 [label="X[36232] <= 0.189\nentropy = 0.544\nsamples = 656\nvalue = [574, 82]"] ;
43 -> 44 ;
45 [label="X[24849] <= 0.083\nentropy = 0.536\nsamples = 654\nvalue = [574, 80]"] ;
44 -> 45 ;
46 [label="X[21178] <= 0.193\nentropy = 0.525\nsamples = 650\nvalue = [573, 77]"] ;
45 -> 46 ;
47 [label="X[10877] <= 0.083\nentropy = 0.517\nsamples = 648\nvalue = [573, 75]"] ;
46 -> 47 ;
48 [label="X[29488] <= 0.023\nentropy = 0.509\nsamples = 646\nvalue = [573, 73]"] ;
47 -> 48 ;
49 [label="X[8245] <= 0.023\nentropy = 0.523\nsamples = 620\nvalue = [547, 73]"] ;
48 -> 49 ;
50 [label="X[13149] <= 0.233\nentropy = 0.536\nsamples = 596\nvalue = [523, 73]"] ;
49 -> 50 ;
51 [label="X[21091] <= 0.078\nentropy = 0.528\nsamples = 594\nvalue = [523, 71]"] ;
50 -> 51 ;
52 [label="X[6037] <= 0.166\nentropy = 0.517\nsamples = 588\nvalue = [520, 68]"] ;
51 -> 52 ;
53 [label="X[24634] <= 0.135\nentropy = 0.508\nsamples = 585\nvalue = [519, 66]"] ;
52 -> 53 ;
54 [label="X[18503] <= 0.36\nentropy = 0.5\nsamples = 582\nvalue = [518, 64]"] ;
53 -> 54 ;
55 [label="X[34088] <= 0.006\nentropy = 0.491\nsamples = 579\nvalue = [517, 62]"] ;
54 -> 55 ;
56 [label="X[3252] <= 0.197\nentropy = 0.522\nsamples = 511\nvalue = [451, 60]"] ;
55 -> 56 ;
57 [label="X[22459] <= 0.024\nentropy = 0.512\nsamples = 509\nvalue = [451, 58]"] ;
56 -> 57 ;
58 [label="X[31801] <= 0.144\nentropy = 0.527\nsamples = 486\nvalue = [428, 58]"] ;
57 -> 58 ;
59 [label="X[32017] <= 0.049\nentropy = 0.517\nsamples = 484\nvalue = [428, 56]"] ;
58 -> 59 ;
60 [label="X[1826] <= 0.13\nentropy = 0.507\nsamples = 481\nvalue = [427, 54]"] ;
59 -> 60 ;
61 [label="X[1763] <= 0.046\nentropy = 0.496\nsamples = 478\nvalue = [426, 52]"] ;
60 -> 61 ;
62 [label="X[24390] <= 0.168\nentropy = 0.485\nsamples = 475\nvalue = [425, 50]"] ;
61 -> 62 ;
63 [label="X[20244] <= 0.325\nentropy = 0.474\nsamples = 472\nvalue = [424, 48]"] ;
62 -> 63 ;
64 [label="X[22636] <= 0.193\nentropy = 0.468\nsamples = 471\nvalue = [424, 47]"] ;
63 -> 64 ;
65 [label="X[17015] <= 0.024\nentropy = 0.462\nsamples = 470\nvalue = [424, 46]"] ;
64 -> 65 ;
66 [label="X[22404] <= 0.279\nentropy = 0.483\nsamples = 441\nvalue = [395, 46]"] ;
65 -> 66 ;
67 [label="X[34589] <= 0.202\nentropy = 0.476\nsamples = 440\nvalue = [395, 45]"] ;
66 -> 67 ;
68 [label="X[14237] <= 0.407\nentropy = 0.47\nsamples = 439\nvalue = [395, 44]"] ;
67 -> 68 ;
69 [label="X[9080] <= 0.214\nentropy = 0.463\nsamples = 438\nvalue = [395, 43]"] ;
68 -> 69 ;
70 [label="X[17062] <= 0.292\nentropy = 0.457\nsamples = 437\nvalue = [395, 42]"] ;
69 -> 70 ;
71 [label="X[31313] <= 0.245\nentropy = 0.45\nsamples = 436\nvalue = [395, 41]"] ;
70 -> 71 ;
72 [label="X[33966] <= 0.193\nentropy = 0.443\nsamples = 435\nvalue = [395, 40]"] ;
71 -> 72 ;
73 [label="X[14031] <= 0.291\nentropy = 0.436\nsamples = 434\nvalue = [395, 39]"] ;
72 -> 73 ;
74 [label="X[14282] <= 0.389\nentropy = 0.429\nsamples = 433\nvalue = [395, 38]"] ;
73 -> 74 ;
75 [label="X[34527] <= 0.368\nentropy = 0.422\nsamples = 432\nvalue = [395, 37]"] ;
74 -> 75 ;
76 [label="X[9948] <= 0.091\nentropy = 0.414\nsamples = 431\nvalue = [395, 36]"] ;
75 -> 76 ;
77 [label="X[6376] <= 0.38\nentropy = 0.407\nsamples = 430\nvalue = [395, 35]"] ;
76 -> 77 ;
78 [label="X[21746] <= 0.143\nentropy = 0.4\nsamples = 429\nvalue = [395, 34]"] ;
77 -> 78 ;
79 [label="X[20212] <= 0.179\nentropy = 0.392\nsamples = 428\nvalue = [395, 33]"] ;
78 -> 79 ;
80 [label="X[28421] <= 0.278\nentropy = 0.384\nsamples = 427\nvalue = [395, 32]"] ;
79 -> 80 ;
81 [label="X[32743] <= 0.226\nentropy = 0.369\nsamples = 423\nvalue = [393, 30]"] ;
80 -> 81 ;
82 [label="X[29110] <= 0.123\nentropy = 0.361\nsamples = 422\nvalue = [393, 29]"] ;
81 -> 82 ;
83 [label="X[35344] <= 0.012\nentropy = 0.353\nsamples = 421\nvalue = [393, 28]"] ;
82 -> 83 ;
84 [label="X[5877] <= 0.368\nentropy = 0.385\nsamples = 373\nvalue = [345, 28]"] ;
83 -> 84 ;
85 [label="X[10302] <= 0.382\nentropy = 0.375\nsamples = 372\nvalue = [345, 27]"] ;
84 -> 85 ;
86 [label="X[5537] <= 0.754\nentropy = 0.366\nsamples = 371\nvalue = [345, 26]"] ;
85 -> 86 ;
87 [label="X[27091] <= 0.319\nentropy = 0.357\nsamples = 370\nvalue = [345, 25]"] ;
86 -> 87 ;
88 [label="X[32569] <= 0.363\nentropy = 0.347\nsamples = 369\nvalue = [345, 24]"] ;
87 -> 88 ;
89 [label="X[22448] <= 0.299\nentropy = 0.337\nsamples = 368\nvalue = [345, 23]"] ;
88 -> 89 ;
90 [label="X[28960] <= 0.277\nentropy = 0.327\nsamples = 367\nvalue = [345, 22]"] ;
89 -> 90 ;
91 [label="X[34050] <= 0.5\nentropy = 0.317\nsamples = 366\nvalue = [345, 21]"] ;
90 -> 91 ;
92 [label="X[11440] <= 0.006\nentropy = 0.306\nsamples = 365\nvalue = [345, 20]"] ;
91 -> 92 ;
93 [label="X[7478] <= 0.007\nentropy = 0.318\nsamples = 347\nvalue = [327, 20]"] ;
92 -> 93 ;
94 [label="X[8299] <= 0.043\nentropy = 0.329\nsamples = 331\nvalue = [311, 20]"] ;
93 -> 94 ;
95 [label="X[21336] <= 0.068\nentropy = 0.337\nsamples = 320\nvalue = [300, 20]"] ;
94 -> 95 ;
96 [label="X[23726] <= 0.023\nentropy = 0.344\nsamples = 311\nvalue = [291, 20]"] ;
95 -> 96 ;
97 [label="X[8242] <= 0.061\nentropy = 0.351\nsamples = 303\nvalue = [283, 20]"] ;
96 -> 97 ;
98 [label="X[16575] <= 0.097\nentropy = 0.358\nsamples = 295\nvalue = [275, 20]"] ;
97 -> 98 ;
99 [label="X[32249] <= 0.036\nentropy = 0.365\nsamples = 287\nvalue = [267, 20]"] ;
98 -> 99 ;
100 [label="X[22683] <= 0.057\nentropy = 0.372\nsamples = 279\nvalue = [259, 20]"] ;
99 -> 100 ;
101 [label="X[1237] <= 0.052\nentropy = 0.379\nsamples = 272\nvalue = [252, 20]"] ;
100 -> 101 ;
102 [label="X[5877] <= 0.035\nentropy = 0.385\nsamples = 266\nvalue = [246, 20]"] ;
101 -> 102 ;
103 [label="X[25651] <= 0.021\nentropy = 0.391\nsamples = 260\nvalue = [240, 20]"] ;
102 -> 103 ;
104 [label="X[28610] <= 0.026\nentropy = 0.398\nsamples = 254\nvalue = [234, 20]"] ;
103 -> 104 ;
105 [label="X[7453] <= 0.099\nentropy = 0.404\nsamples = 248\nvalue = [228, 20]"] ;
104 -> 105 ;
106 [label="X[15312] <= 0.034\nentropy = 0.41\nsamples = 243\nvalue = [223, 20]"] ;
105 -> 106 ;
107 [label="X[35908] <= 0.046\nentropy = 0.416\nsamples = 238\nvalue = [218, 20]"] ;
106 -> 107 ;
108 [label="X[16986] <= 0.014\nentropy = 0.422\nsamples = 233\nvalue = [213, 20]"] ;
107 -> 108 ;
109 [label="X[1002] <= 0.018\nentropy = 0.429\nsamples = 228\nvalue = [208, 20]"] ;
108 -> 109 ;
110 [label="X[8095] <= 0.091\nentropy = 0.435\nsamples = 223\nvalue = [203, 20]"] ;
109 -> 110 ;
111 [label="X[22282] <= 0.039\nentropy = 0.441\nsamples = 219\nvalue = [199, 20]"] ;
110 -> 111 ;
112 [label="X[35813] <= 0.041\nentropy = 0.446\nsamples = 215\nvalue = [195, 20]"] ;
111 -> 112 ;
113 [label="X[5394] <= 0.312\nentropy = 0.452\nsamples = 211\nvalue = [191, 20]"] ;
112 -> 113 ;
114 [label="X[3638] <= 0.244\nentropy = 0.458\nsamples = 207\nvalue = [187, 20]"] ;
113 -> 114 ;
115 [label="X[1135] <= 0.111\nentropy = 0.464\nsamples = 203\nvalue = [183, 20]"] ;
114 -> 115 ;
116 [label="X[33199] <= 0.028\nentropy = 0.469\nsamples = 200\nvalue = [180, 20]"] ;
115 -> 116 ;
117 [label="X[5671] <= 0.054\nentropy = 0.474\nsamples = 197\nvalue = [177, 20]"] ;
116 -> 117 ;
118 [label="X[22951] <= 0.042\nentropy = 0.479\nsamples = 194\nvalue = [174, 20]"] ;
117 -> 118 ;
119 [label="X[8272] <= 0.036\nentropy = 0.484\nsamples = 191\nvalue = [171, 20]"] ;
118 -> 119 ;
120 [label="X[30970] <= 0.045\nentropy = 0.489\nsamples = 188\nvalue = [168, 20]"] ;
119 -> 120 ;
121 [label="X[28405] <= 0.048\nentropy = 0.494\nsamples = 185\nvalue = [165, 20]"] ;
120 -> 121 ;
122 [label="X[18165] <= 0.129\nentropy = 0.5\nsamples = 182\nvalue = [162, 20]"] ;
121 -> 122 ;
123 [label="X[19853] <= 0.199\nentropy = 0.505\nsamples = 179\nvalue = [159, 20]"] ;
122 -> 123 ;
124 [label="X[15865] <= 0.133\nentropy = 0.511\nsamples = 176\nvalue = [156, 20]"] ;
123 -> 124 ;
125 [label="X[23772] <= 0.205\nentropy = 0.515\nsamples = 174\nvalue = [154, 20]"] ;
124 -> 125 ;
126 [label="X[27781] <= 0.125\nentropy = 0.519\nsamples = 172\nvalue = [152, 20]"] ;
125 -> 126 ;
127 [label="X[28421] <= 0.106\nentropy = 0.523\nsamples = 170\nvalue = [150, 20]"] ;
126 -> 127 ;
128 [label="X[16830] <= 0.196\nentropy = 0.527\nsamples = 168\nvalue = [148, 20]"] ;
127 -> 128 ;
129 [label="X[22113] <= 0.188\nentropy = 0.531\nsamples = 166\nvalue = [146, 20]"] ;
128 -> 129 ;
130 [label="X[21607] <= 0.158\nentropy = 0.535\nsamples = 164\nvalue = [144, 20]"] ;
129 -> 130 ;
131 [label="X[26065] <= 0.139\nentropy = 0.539\nsamples = 162\nvalue = [142, 20]"] ;
130 -> 131 ;
132 [label="X[20150] <= 0.17\nentropy = 0.544\nsamples = 160\nvalue = [140, 20]"] ;
131 -> 132 ;
133 [label="X[6218] <= 0.226\nentropy = 0.548\nsamples = 158\nvalue = [138, 20]"] ;
132 -> 133 ;
134 [label="X[6198] <= 0.177\nentropy = 0.552\nsamples = 156\nvalue = [136, 20]"] ;
133 -> 134 ;
135 [label="X[7232] <= 0.054\nentropy = 0.557\nsamples = 154\nvalue = [134, 20]"] ;
134 -> 135 ;
136 [label="X[16651] <= 0.221\nentropy = 0.562\nsamples = 152\nvalue = [132, 20]"] ;
135 -> 136 ;
137 [label="X[439] <= 0.169\nentropy = 0.567\nsamples = 150\nvalue = [130, 20]"] ;
136 -> 137 ;
138 [label="X[1675] <= 0.184\nentropy = 0.571\nsamples = 148\nvalue = [128, 20]"] ;
137 -> 138 ;
139 [label="X[34713] <= 0.215\nentropy = 0.576\nsamples = 146\nvalue = [126, 20]"] ;
138 -> 139 ;
140 [label="X[17104] <= 0.132\nentropy = 0.581\nsamples = 144\nvalue = [124, 20]"] ;
139 -> 140 ;
141 [label="X[31313] <= 0.058\nentropy = 0.586\nsamples = 142\nvalue = [122, 20]"] ;
140 -> 141 ;
142 [label="X[16250] <= 0.09\nentropy = 0.592\nsamples = 140\nvalue = [120, 20]"] ;
141 -> 142 ;
143 [label="X[4550] <= 0.382\nentropy = 0.597\nsamples = 138\nvalue = [118, 20]"] ;
142 -> 143 ;
144 [label="X[33028] <= 0.238\nentropy = 0.602\nsamples = 136\nvalue = [116, 20]"] ;
143 -> 144 ;
145 [label="X[18688] <= 0.314\nentropy = 0.608\nsamples = 134\nvalue = [114, 20]"] ;
144 -> 145 ;
146 [label="X[1001] <= 0.046\nentropy = 0.614\nsamples = 132\nvalue = [112, 20]"] ;
145 -> 146 ;
147 [label="X[3743] <= 0.082\nentropy = 0.619\nsamples = 130\nvalue = [110, 20]"] ;
146 -> 147 ;
148 [label="X[2575] <= 0.354\nentropy = 0.625\nsamples = 128\nvalue = [108, 20]"] ;
147 -> 148 ;
149 [label="X[13081] <= 0.159\nentropy = 0.628\nsamples = 127\nvalue = [107, 20]"] ;
148 -> 149 ;
150 [label="X[25502] <= 0.214\nentropy = 0.631\nsamples = 126\nvalue = [106, 20]"] ;
149 -> 150 ;
151 [label="X[1228] <= 0.324\nentropy = 0.634\nsamples = 125\nvalue = [105, 20]"] ;
150 -> 151 ;
152 [label="X[29467] <= 0.414\nentropy = 0.637\nsamples = 124\nvalue = [104, 20]"] ;
151 -> 152 ;
153 [label="X[25318] <= 0.064\nentropy = 0.64\nsamples = 123\nvalue = [103, 20]"] ;
152 -> 153 ;
154 [label="X[28875] <= 0.113\nentropy = 0.644\nsamples = 122\nvalue = [102, 20]"] ;
153 -> 154 ;
155 [label="X[15530] <= 0.406\nentropy = 0.647\nsamples = 121\nvalue = [101, 20]"] ;
154 -> 155 ;
156 [label="X[23948] <= 0.248\nentropy = 0.65\nsamples = 120\nvalue = [100, 20]"] ;
155 -> 156 ;
157 [label="X[8489] <= 0.126\nentropy = 0.653\nsamples = 119\nvalue = [99, 20]"] ;
156 -> 157 ;
158 [label="X[3396] <= 0.15\nentropy = 0.657\nsamples = 118\nvalue = [98, 20]"] ;
157 -> 158 ;
159 [label="X[32020] <= 0.186\nentropy = 0.66\nsamples = 117\nvalue = [97, 20]"] ;
158 -> 159 ;
160 [label="X[21905] <= 0.429\nentropy = 0.663\nsamples = 116\nvalue = [96, 20]"] ;
159 -> 160 ;
161 [label="X[17996] <= 0.351\nentropy = 0.667\nsamples = 115\nvalue = [95, 20]"] ;
160 -> 161 ;
162 [label="X[36851] <= 0.377\nentropy = 0.67\nsamples = 114\nvalue = [94, 20]"] ;
161 -> 162 ;
163 [label="X[17273] <= 0.221\nentropy = 0.673\nsamples = 113\nvalue = [93, 20]"] ;
162 -> 163 ;
164 [label="X[16561] <= 0.095\nentropy = 0.677\nsamples = 112\nvalue = [92, 20]"] ;
163 -> 164 ;
165 [label="X[5628] <= 0.333\nentropy = 0.68\nsamples = 111\nvalue = [91, 20]"] ;
164 -> 165 ;
166 [label="X[17609] <= 0.382\nentropy = 0.684\nsamples = 110\nvalue = [90, 20]"] ;
165 -> 166 ;
167 [label="X[26947] <= 0.304\nentropy = 0.688\nsamples = 109\nvalue = [89, 20]"] ;
166 -> 167 ;
168 [label="X[17057] <= 0.203\nentropy = 0.691\nsamples = 108\nvalue = [88, 20]"] ;
167 -> 168 ;
169 [label="X[25631] <= 0.267\nentropy = 0.695\nsamples = 107\nvalue = [87, 20]"] ;
168 -> 169 ;
170 [label="X[13914] <= 0.5\nentropy = 0.699\nsamples = 106\nvalue = [86, 20]"] ;
169 -> 170 ;
171 [label="X[26475] <= 0.348\nentropy = 0.702\nsamples = 105\nvalue = [85, 20]"] ;
170 -> 171 ;
172 [label="X[21112] <= 0.35\nentropy = 0.706\nsamples = 104\nvalue = [84, 20]"] ;
171 -> 172 ;
173 [label="X[24204] <= 0.24\nentropy = 0.71\nsamples = 103\nvalue = [83, 20]"] ;
172 -> 173 ;
174 [label="X[34603] <= 0.365\nentropy = 0.714\nsamples = 102\nvalue = [82, 20]"] ;
173 -> 174 ;
175 [label="X[35701] <= 0.302\nentropy = 0.718\nsamples = 101\nvalue = [81, 20]"] ;
174 -> 175 ;
176 [label="X[24575] <= 0.323\nentropy = 0.722\nsamples = 100\nvalue = [80, 20]"] ;
175 -> 176 ;
177 [label="X[32278] <= 0.243\nentropy = 0.726\nsamples = 99\nvalue = [79, 20]"] ;
176 -> 177 ;
178 [label="X[14828] <= 0.375\nentropy = 0.73\nsamples = 98\nvalue = [78, 20]"] ;
177 -> 178 ;
179 [label="X[17194] <= 0.306\nentropy = 0.734\nsamples = 97\nvalue = [77, 20]"] ;
178 -> 179 ;
180 [label="X[443] <= 0.241\nentropy = 0.738\nsamples = 96\nvalue = [76, 20]"] ;
179 -> 180 ;
181 [label="X[9423] <= 0.5\nentropy = 0.742\nsamples = 95\nvalue = [75, 20]"] ;
180 -> 181 ;
182 [label="X[11124] <= 0.5\nentropy = 0.747\nsamples = 94\nvalue = [74, 20]"] ;
181 -> 182 ;
183 [label="X[28758] <= 0.158\nentropy = 0.751\nsamples = 93\nvalue = [73, 20]"] ;
182 -> 183 ;
184 [label="X[8541] <= 0.413\nentropy = 0.755\nsamples = 92\nvalue = [72, 20]"] ;
183 -> 184 ;
185 [label="X[2634] <= 0.307\nentropy = 0.76\nsamples = 91\nvalue = [71, 20]"] ;
184 -> 185 ;
186 [label="X[20095] <= 0.279\nentropy = 0.764\nsamples = 90\nvalue = [70, 20]"] ;
185 -> 186 ;
187 [label="X[19356] <= 0.388\nentropy = 0.769\nsamples = 89\nvalue = [69, 20]"] ;
186 -> 187 ;
188 [label="X[7067] <= 0.31\nentropy = 0.773\nsamples = 88\nvalue = [68, 20]"] ;
187 -> 188 ;
189 [label="X[16432] <= 0.232\nentropy = 0.778\nsamples = 87\nvalue = [67, 20]"] ;
188 -> 189 ;
190 [label="X[22388] <= 0.187\nentropy = 0.782\nsamples = 86\nvalue = [66, 20]"] ;
189 -> 190 ;
191 [label="X[9766] <= 0.5\nentropy = 0.787\nsamples = 85\nvalue = [65, 20]"] ;
190 -> 191 ;
192 [label="X[31702] <= 0.334\nentropy = 0.792\nsamples = 84\nvalue = [64, 20]"] ;
191 -> 192 ;
193 [label="X[25774] <= 0.265\nentropy = 0.797\nsamples = 83\nvalue = [63, 20]"] ;
192 -> 193 ;
194 [label="X[5002] <= 0.5\nentropy = 0.801\nsamples = 82\nvalue = [62, 20]"] ;
193 -> 194 ;
195 [label="X[16443] <= 0.362\nentropy = 0.806\nsamples = 81\nvalue = [61, 20]"] ;
194 -> 195 ;
196 [label="X[10609] <= 0.375\nentropy = 0.811\nsamples = 80\nvalue = [60, 20]"] ;
195 -> 196 ;
197 [label="X[34019] <= 0.5\nentropy = 0.816\nsamples = 79\nvalue = [59, 20]"] ;
196 -> 197 ;
198 [label="X[34967] <= 0.5\nentropy = 0.821\nsamples = 78\nvalue = [58, 20]"] ;
197 -> 198 ;
199 [label="X[34249] <= 0.5\nentropy = 0.826\nsamples = 77\nvalue = [57, 20]"] ;
198 -> 199 ;
200 [label="entropy = 0.844\nsamples = 70\nvalue = [51, 19]"] ;
199 -> 200 ;
201 [label="entropy = 0.592\nsamples = 7\nvalue = [6, 1]"] ;
199 -> 201 ;
202 [label="entropy = 0.0\nsamples = 1\nvalue = [1, 0]"] ;
198 -> 202 ;
203 [label="entropy = 0.0\nsamples = 1\nvalue = [1, 0]"] ;
197 -> 203 ;
204 [label="entropy = 0.0\nsamples = 1\nvalue = [1, 0]"] ;
196 -> 204 ;
205 [label="entropy = 0.0\nsamples = 1\nvalue = [1, 0]"] ;
195 -> 205 ;
206 [label="entropy = 0.0\nsamples = 1\nvalue = [1, 0]"] ;
194 -> 206 ;
207 [label="entropy = 0.0\nsamples = 1\nvalue = [1, 0]"] ;
193 -> 207 ;
208 [label="entropy = 0.0\nsamples = 1\nvalue = [1, 0]"] ;
192 -> 208 ;
209 [label="entropy = 0.0\nsamples = 1\nvalue = [1, 0]"] ;
191 -> 209 ;
210 [label="entropy = 0.0\nsamples = 1\nvalue = [1, 0]"] ;
190 -> 210 ;
211 [label="entropy = 0.0\nsamples = 1\nvalue = [1, 0]"] ;
189 -> 211 ;
212 [label="entropy = 0.0\nsamples = 1\nvalue = [1, 0]"] ;
188 -> 212 ;
213 [label="entropy = 0.0\nsamples = 1\nvalue = [1, 0]"] ;
187 -> 213 ;
214 [label="entropy = 0.0\nsamples = 1\nvalue = [1, 0]"] ;
186 -> 214 ;
215 [label="entropy = 0.0\nsamples = 1\nvalue = [1, 0]"] ;
185 -> 215 ;
216 [label="entropy = 0.0\nsamples = 1\nvalue = [1, 0]"] ;
184 -> 216 ;
217 [label="entropy = 0.0\nsamples = 1\nvalue = [1, 0]"] ;
183 -> 217 ;
218 [label="entropy = 0.0\nsamples = 1\nvalue = [1, 0]"] ;
182 -> 218 ;
219 [label="entropy = 0.0\nsamples = 1\nvalue = [1, 0]"] ;
181 -> 219 ;
220 [label="entropy = 0.0\nsamples = 1\nvalue = [1, 0]"] ;
180 -> 220 ;
221 [label="entropy = 0.0\nsamples = 1\nvalue = [1, 0]"] ;
179 -> 221 ;
222 [label="entropy = 0.0\nsamples = 1\nvalue = [1, 0]"] ;
178 -> 222 ;
223 [label="entropy = 0.0\nsamples = 1\nvalue = [1, 0]"] ;
177 -> 223 ;
224 [label="entropy = 0.0\nsamples = 1\nvalue = [1, 0]"] ;
176 -> 224 ;
225 [label="entropy = 0.0\nsamples = 1\nvalue = [1, 0]"] ;
175 -> 225 ;
226 [label="entropy = 0.0\nsamples = 1\nvalue = [1, 0]"] ;
174 -> 226 ;
227 [label="entropy = 0.0\nsamples = 1\nvalue = [1, 0]"] ;
173 -> 227 ;
228 [label="entropy = 0.0\nsamples = 1\nvalue = [1, 0]"] ;
172 -> 228 ;
229 [label="entropy = 0.0\nsamples = 1\nvalue = [1, 0]"] ;
171 -> 229 ;
230 [label="entropy = 0.0\nsamples = 1\nvalue = [1, 0]"] ;
170 -> 230 ;
231 [label="entropy = 0.0\nsamples = 1\nvalue = [1, 0]"] ;
169 -> 231 ;
232 [label="entropy = 0.0\nsamples = 1\nvalue = [1, 0]"] ;
168 -> 232 ;
233 [label="entropy = 0.0\nsamples = 1\nvalue = [1, 0]"] ;
167 -> 233 ;
234 [label="entropy = 0.0\nsamples = 1\nvalue = [1, 0]"] ;
166 -> 234 ;
235 [label="entropy = 0.0\nsamples = 1\nvalue = [1, 0]"] ;
165 -> 235 ;
236 [label="entropy = 0.0\nsamples = 1\nvalue = [1, 0]"] ;
164 -> 236 ;
237 [label="entropy = 0.0\nsamples = 1\nvalue = [1, 0]"] ;
163 -> 237 ;
238 [label="entropy = 0.0\nsamples = 1\nvalue = [1, 0]"] ;
162 -> 238 ;
239 [label="entropy = 0.0\nsamples = 1\nvalue = [1, 0]"] ;
161 -> 239 ;
240 [label="entropy = 0.0\nsamples = 1\nvalue = [1, 0]"] ;
160 -> 240 ;
241 [label="entropy = 0.0\nsamples = 1\nvalue = [1, 0]"] ;
159 -> 241 ;
242 [label="entropy = 0.0\nsamples = 1\nvalue = [1, 0]"] ;
158 -> 242 ;
243 [label="entropy = 0.0\nsamples = 1\nvalue = [1, 0]"] ;
157 -> 243 ;
244 [label="entropy = 0.0\nsamples = 1\nvalue = [1, 0]"] ;
156 -> 244 ;
245 [label="entropy = 0.0\nsamples = 1\nvalue = [1, 0]"] ;
155 -> 245 ;
246 [label="entropy = 0.0\nsamples = 1\nvalue = [1, 0]"] ;
154 -> 246 ;
247 [label="entropy = 0.0\nsamples = 1\nvalue = [1, 0]"] ;
153 -> 247 ;
248 [label="entropy = 0.0\nsamples = 1\nvalue = [1, 0]"] ;
152 -> 248 ;
249 [label="entropy = 0.0\nsamples = 1\nvalue = [1, 0]"] ;
151 -> 249 ;
250 [label="entropy = 0.0\nsamples = 1\nvalue = [1, 0]"] ;
150 -> 250 ;
251 [label="entropy = 0.0\nsamples = 1\nvalue = [1, 0]"] ;
149 -> 251 ;
252 [label="entropy = 0.0\nsamples = 1\nvalue = [1, 0]"] ;
148 -> 252 ;
253 [label="entropy = 0.0\nsamples = 2\nvalue = [2, 0]"] ;
147 -> 253 ;
254 [label="entropy = 0.0\nsamples = 2\nvalue = [2, 0]"] ;
146 -> 254 ;
255 [label="entropy = 0.0\nsamples = 2\nvalue = [2, 0]"] ;
145 -> 255 ;
256 [label="entropy = 0.0\nsamples = 2\nvalue = [2, 0]"] ;
144 -> 256 ;
257 [label="entropy = 0.0\nsamples = 2\nvalue = [2, 0]"] ;
143 -> 257 ;
258 [label="entropy = 0.0\nsamples = 2\nvalue = [2, 0]"] ;
142 -> 258 ;
259 [label="entropy = 0.0\nsamples = 2\nvalue = [2, 0]"] ;
141 -> 259 ;
260 [label="entropy = 0.0\nsamples = 2\nvalue = [2, 0]"] ;
140 -> 260 ;
261 [label="entropy = 0.0\nsamples = 2\nvalue = [2, 0]"] ;
139 -> 261 ;
262 [label="entropy = 0.0\nsamples = 2\nvalue = [2, 0]"] ;
138 -> 262 ;
263 [label="entropy = 0.0\nsamples = 2\nvalue = [2, 0]"] ;
137 -> 263 ;
264 [label="entropy = 0.0\nsamples = 2\nvalue = [2, 0]"] ;
136 -> 264 ;
265 [label="entropy = 0.0\nsamples = 2\nvalue = [2, 0]"] ;
135 -> 265 ;
266 [label="entropy = 0.0\nsamples = 2\nvalue = [2, 0]"] ;
134 -> 266 ;
267 [label="entropy = 0.0\nsamples = 2\nvalue = [2, 0]"] ;
133 -> 267 ;
268 [label="entropy = 0.0\nsamples = 2\nvalue = [2, 0]"] ;
132 -> 268 ;
269 [label="entropy = 0.0\nsamples = 2\nvalue = [2, 0]"] ;
131 -> 269 ;
270 [label="entropy = 0.0\nsamples = 2\nvalue = [2, 0]"] ;
130 -> 270 ;
271 [label="entropy = 0.0\nsamples = 2\nvalue = [2, 0]"] ;
129 -> 271 ;
272 [label="entropy = 0.0\nsamples = 2\nvalue = [2, 0]"] ;
128 -> 272 ;
273 [label="entropy = 0.0\nsamples = 2\nvalue = [2, 0]"] ;
127 -> 273 ;
274 [label="entropy = 0.0\nsamples = 2\nvalue = [2, 0]"] ;
126 -> 274 ;
275 [label="entropy = 0.0\nsamples = 2\nvalue = [2, 0]"] ;
125 -> 275 ;
276 [label="entropy = 0.0\nsamples = 2\nvalue = [2, 0]"] ;
124 -> 276 ;
277 [label="entropy = 0.0\nsamples = 3\nvalue = [3, 0]"] ;
123 -> 277 ;
278 [label="entropy = 0.0\nsamples = 3\nvalue = [3, 0]"] ;
122 -> 278 ;
279 [label="entropy = 0.0\nsamples = 3\nvalue = [3, 0]"] ;
121 -> 279 ;
280 [label="entropy = 0.0\nsamples = 3\nvalue = [3, 0]"] ;
120 -> 280 ;
281 [label="entropy = 0.0\nsamples = 3\nvalue = [3, 0]"] ;
119 -> 281 ;
282 [label="entropy = 0.0\nsamples = 3\nvalue = [3, 0]"] ;
118 -> 282 ;
283 [label="entropy = 0.0\nsamples = 3\nvalue = [3, 0]"] ;
117 -> 283 ;
284 [label="entropy = 0.0\nsamples = 3\nvalue = [3, 0]"] ;
116 -> 284 ;
285 [label="entropy = 0.0\nsamples = 3\nvalue = [3, 0]"] ;
115 -> 285 ;
286 [label="entropy = 0.0\nsamples = 4\nvalue = [4, 0]"] ;
114 -> 286 ;
287 [label="entropy = 0.0\nsamples = 4\nvalue = [4, 0]"] ;
113 -> 287 ;
288 [label="entropy = 0.0\nsamples = 4\nvalue = [4, 0]"] ;
112 -> 288 ;
289 [label="entropy = 0.0\nsamples = 4\nvalue = [4, 0]"] ;
111 -> 289 ;
290 [label="entropy = 0.0\nsamples = 4\nvalue = [4, 0]"] ;
110 -> 290 ;
291 [label="entropy = 0.0\nsamples = 5\nvalue = [5, 0]"] ;
109 -> 291 ;
292 [label="entropy = 0.0\nsamples = 5\nvalue = [5, 0]"] ;
108 -> 292 ;
293 [label="entropy = 0.0\nsamples = 5\nvalue = [5, 0]"] ;
107 -> 293 ;
294 [label="entropy = 0.0\nsamples = 5\nvalue = [5, 0]"] ;
106 -> 294 ;
295 [label="entropy = 0.0\nsamples = 5\nvalue = [5, 0]"] ;
105 -> 295 ;
296 [label="entropy = 0.0\nsamples = 6\nvalue = [6, 0]"] ;
104 -> 296 ;
297 [label="entropy = 0.0\nsamples = 6\nvalue = [6, 0]"] ;
103 -> 297 ;
298 [label="entropy = 0.0\nsamples = 6\nvalue = [6, 0]"] ;
102 -> 298 ;
299 [label="entropy = 0.0\nsamples = 6\nvalue = [6, 0]"] ;
101 -> 299 ;
300 [label="entropy = 0.0\nsamples = 7\nvalue = [7, 0]"] ;
100 -> 300 ;
301 [label="entropy = 0.0\nsamples = 8\nvalue = [8, 0]"] ;
99 -> 301 ;
302 [label="entropy = 0.0\nsamples = 8\nvalue = [8, 0]"] ;
98 -> 302 ;
303 [label="entropy = 0.0\nsamples = 8\nvalue = [8, 0]"] ;
97 -> 303 ;
304 [label="entropy = 0.0\nsamples = 8\nvalue = [8, 0]"] ;
96 -> 304 ;
305 [label="entropy = 0.0\nsamples = 9\nvalue = [9, 0]"] ;
95 -> 305 ;
306 [label="entropy = 0.0\nsamples = 11\nvalue = [11, 0]"] ;
94 -> 306 ;
307 [label="entropy = 0.0\nsamples = 16\nvalue = [16, 0]"] ;
93 -> 307 ;
308 [label="entropy = 0.0\nsamples = 18\nvalue = [18, 0]"] ;
92 -> 308 ;
309 [label="entropy = 0.0\nsamples = 1\nvalue = [0, 1]"] ;
91 -> 309 ;
310 [label="entropy = 0.0\nsamples = 1\nvalue = [0, 1]"] ;
90 -> 310 ;
311 [label="entropy = 0.0\nsamples = 1\nvalue = [0, 1]"] ;
89 -> 311 ;
312 [label="entropy = 0.0\nsamples = 1\nvalue = [0, 1]"] ;
88 -> 312 ;
313 [label="entropy = 0.0\nsamples = 1\nvalue = [0, 1]"] ;
87 -> 313 ;
314 [label="entropy = 0.0\nsamples = 1\nvalue = [0, 1]"] ;
86 -> 314 ;
315 [label="entropy = 0.0\nsamples = 1\nvalue = [0, 1]"] ;
85 -> 315 ;
316 [label="entropy = 0.0\nsamples = 1\nvalue = [0, 1]"] ;
84 -> 316 ;
317 [label="entropy = 0.0\nsamples = 48\nvalue = [48, 0]"] ;
83 -> 317 ;
318 [label="entropy = 0.0\nsamples = 1\nvalue = [0, 1]"] ;
82 -> 318 ;
319 [label="entropy = 0.0\nsamples = 1\nvalue = [0, 1]"] ;
81 -> 319 ;
320 [label="X[6456] <= 0.081\nentropy = 1.0\nsamples = 4\nvalue = [2, 2]"] ;
80 -> 320 ;
321 [label="X[1001] <= 0.19\nentropy = 0.918\nsamples = 3\nvalue = [1, 2]"] ;
320 -> 321 ;
322 [label="entropy = 0.0\nsamples = 2\nvalue = [0, 2]"] ;
321 -> 322 ;
323 [label="entropy = 0.0\nsamples = 1\nvalue = [1, 0]"] ;
321 -> 323 ;
324 [label="entropy = 0.0\nsamples = 1\nvalue = [1, 0]"] ;
320 -> 324 ;
325 [label="entropy = 0.0\nsamples = 1\nvalue = [0, 1]"] ;
79 -> 325 ;
326 [label="entropy = 0.0\nsamples = 1\nvalue = [0, 1]"] ;
78 -> 326 ;
327 [label="entropy = 0.0\nsamples = 1\nvalue = [0, 1]"] ;
77 -> 327 ;
328 [label="entropy = 0.0\nsamples = 1\nvalue = [0, 1]"] ;
76 -> 328 ;
329 [label="entropy = 0.0\nsamples = 1\nvalue = [0, 1]"] ;
75 -> 329 ;
330 [label="entropy = 0.0\nsamples = 1\nvalue = [0, 1]"] ;
74 -> 330 ;
331 [label="entropy = 0.0\nsamples = 1\nvalue = [0, 1]"] ;
73 -> 331 ;
332 [label="entropy = 0.0\nsamples = 1\nvalue = [0, 1]"] ;
72 -> 332 ;
333 [label="entropy = 0.0\nsamples = 1\nvalue = [0, 1]"] ;
71 -> 333 ;
334 [label="entropy = 0.0\nsamples = 1\nvalue = [0, 1]"] ;
70 -> 334 ;
335 [label="entropy = 0.0\nsamples = 1\nvalue = [0, 1]"] ;
69 -> 335 ;
336 [label="entropy = 0.0\nsamples = 1\nvalue = [0, 1]"] ;
68 -> 336 ;
337 [label="entropy = 0.0\nsamples = 1\nvalue = [0, 1]"] ;
67 -> 337 ;
338 [label="entropy = 0.0\nsamples = 1\nvalue = [0, 1]"] ;
66 -> 338 ;
339 [label="entropy = 0.0\nsamples = 29\nvalue = [29, 0]"] ;
65 -> 339 ;
340 [label="entropy = 0.0\nsamples = 1\nvalue = [0, 1]"] ;
64 -> 340 ;
341 [label="entropy = 0.0\nsamples = 1\nvalue = [0, 1]"] ;
63 -> 341 ;
342 [label="X[23306] <= 0.108\nentropy = 0.918\nsamples = 3\nvalue = [1, 2]"] ;
62 -> 342 ;
343 [label="entropy = 0.0\nsamples = 2\nvalue = [0, 2]"] ;
342 -> 343 ;
344 [label="entropy = 0.0\nsamples = 1\nvalue = [1, 0]"] ;
342 -> 344 ;
345 [label="X[11143] <= 0.055\nentropy = 0.918\nsamples = 3\nvalue = [1, 2]"] ;
61 -> 345 ;
346 [label="entropy = 0.0\nsamples = 2\nvalue = [0, 2]"] ;
345 -> 346 ;
347 [label="entropy = 0.0\nsamples = 1\nvalue = [1, 0]"] ;
345 -> 347 ;
348 [label="X[6897] <= 0.122\nentropy = 0.918\nsamples = 3\nvalue = [1, 2]"] ;
60 -> 348 ;
349 [label="entropy = 0.0\nsamples = 2\nvalue = [0, 2]"] ;
348 -> 349 ;
350 [label="entropy = 0.0\nsamples = 1\nvalue = [1, 0]"] ;
348 -> 350 ;
351 [label="X[9125] <= 0.2\nentropy = 0.918\nsamples = 3\nvalue = [1, 2]"] ;
59 -> 351 ;
352 [label="entropy = 0.0\nsamples = 2\nvalue = [0, 2]"] ;
351 -> 352 ;
353 [label="entropy = 0.0\nsamples = 1\nvalue = [1, 0]"] ;
351 -> 353 ;
354 [label="entropy = 0.0\nsamples = 2\nvalue = [0, 2]"] ;
58 -> 354 ;
355 [label="entropy = 0.0\nsamples = 23\nvalue = [23, 0]"] ;
57 -> 355 ;
356 [label="entropy = 0.0\nsamples = 2\nvalue = [0, 2]"] ;
56 -> 356 ;
357 [label="X[34088] <= 0.173\nentropy = 0.191\nsamples = 68\nvalue = [66, 2]"] ;
55 -> 357 ;
358 [label="entropy = 0.0\nsamples = 64\nvalue = [64, 0]"] ;
357 -> 358 ;
359 [label="X[9517] <= 0.156\nentropy = 1.0\nsamples = 4\nvalue = [2, 2]"] ;
357 -> 359 ;
360 [label="X[25502] <= 0.276\nentropy = 0.918\nsamples = 3\nvalue = [2, 1]"] ;
359 -> 360 ;
361 [label="entropy = 0.0\nsamples = 2\nvalue = [2, 0]"] ;
360 -> 361 ;
362 [label="entropy = 0.0\nsamples = 1\nvalue = [0, 1]"] ;
360 -> 362 ;
363 [label="entropy = 0.0\nsamples = 1\nvalue = [0, 1]"] ;
359 -> 363 ;
364 [label="X[19638] <= 0.098\nentropy = 0.918\nsamples = 3\nvalue = [1, 2]"] ;
54 -> 364 ;
365 [label="entropy = 0.0\nsamples = 2\nvalue = [0, 2]"] ;
364 -> 365 ;
366 [label="entropy = 0.0\nsamples = 1\nvalue = [1, 0]"] ;
364 -> 366 ;
367 [label="X[28192] <= 0.17\nentropy = 0.918\nsamples = 3\nvalue = [1, 2]"] ;
53 -> 367 ;
368 [label="entropy = 0.0\nsamples = 2\nvalue = [0, 2]"] ;
367 -> 368 ;
369 [label="entropy = 0.0\nsamples = 1\nvalue = [1, 0]"] ;
367 -> 369 ;
370 [label="X[20025] <= 0.178\nentropy = 0.918\nsamples = 3\nvalue = [1, 2]"] ;
52 -> 370 ;
371 [label="entropy = 0.0\nsamples = 2\nvalue = [0, 2]"] ;
370 -> 371 ;
372 [label="entropy = 0.0\nsamples = 1\nvalue = [1, 0]"] ;
370 -> 372 ;
373 [label="X[7478] <= 0.067\nentropy = 1.0\nsamples = 6\nvalue = [3, 3]"] ;
51 -> 373 ;
374 [label="X[15492] <= 0.134\nentropy = 0.811\nsamples = 4\nvalue = [3, 1]"] ;
373 -> 374 ;
375 [label="entropy = 0.0\nsamples = 3\nvalue = [3, 0]"] ;
374 -> 375 ;
376 [label="entropy = 0.0\nsamples = 1\nvalue = [0, 1]"] ;
374 -> 376 ;
377 [label="entropy = 0.0\nsamples = 2\nvalue = [0, 2]"] ;
373 -> 377 ;
378 [label="entropy = 0.0\nsamples = 2\nvalue = [0, 2]"] ;
50 -> 378 ;
379 [label="entropy = 0.0\nsamples = 24\nvalue = [24, 0]"] ;
49 -> 379 ;
380 [label="entropy = 0.0\nsamples = 26\nvalue = [26, 0]"] ;
48 -> 380 ;
381 [label="entropy = 0.0\nsamples = 2\nvalue = [0, 2]"] ;
47 -> 381 ;
382 [label="entropy = 0.0\nsamples = 2\nvalue = [0, 2]"] ;
46 -> 382 ;
383 [label="X[27168] <= 0.297\nentropy = 0.811\nsamples = 4\nvalue = [1, 3]"] ;
45 -> 383 ;
384 [label="entropy = 0.0\nsamples = 3\nvalue = [0, 3]"] ;
383 -> 384 ;
385 [label="entropy = 0.0\nsamples = 1\nvalue = [1, 0]"] ;
383 -> 385 ;
386 [label="entropy = 0.0\nsamples = 2\nvalue = [0, 2]"] ;
44 -> 386 ;
387 [label="entropy = 0.0\nsamples = 2\nvalue = [0, 2]"] ;
43 -> 387 ;
388 [label="entropy = 0.0\nsamples = 2\nvalue = [0, 2]"] ;
42 -> 388 ;
389 [label="entropy = 0.0\nsamples = 2\nvalue = [0, 2]"] ;
41 -> 389 ;
390 [label="entropy = 0.0\nsamples = 2\nvalue = [0, 2]"] ;
40 -> 390 ;
391 [label="entropy = 0.0\nsamples = 2\nvalue = [0, 2]"] ;
39 -> 391 ;
392 [label="entropy = 0.0\nsamples = 2\nvalue = [0, 2]"] ;
38 -> 392 ;
393 [label="entropy = 0.0\nsamples = 2\nvalue = [0, 2]"] ;
37 -> 393 ;
394 [label="entropy = 0.0\nsamples = 2\nvalue = [0, 2]"] ;
36 -> 394 ;
395 [label="entropy = 0.0\nsamples = 26\nvalue = [26, 0]"] ;
35 -> 395 ;
396 [label="entropy = 0.0\nsamples = 29\nvalue = [29, 0]"] ;
34 -> 396 ;
397 [label="entropy = 0.0\nsamples = 31\nvalue = [31, 0]"] ;
33 -> 397 ;
398 [label="X[35344] <= 0.032\nentropy = 1.0\nsamples = 12\nvalue = [6, 6]"] ;
32 -> 398 ;
399 [label="X[11447] <= 0.172\nentropy = 0.918\nsamples = 9\nvalue = [6, 3]"] ;
398 -> 399 ;
400 [label="X[7048] <= 0.166\nentropy = 0.811\nsamples = 8\nvalue = [6, 2]"] ;
399 -> 400 ;
401 [label="entropy = 0.0\nsamples = 4\nvalue = [4, 0]"] ;
400 -> 401 ;
402 [label="X[2347] <= 0.188\nentropy = 1.0\nsamples = 4\nvalue = [2, 2]"] ;
400 -> 402 ;
403 [label="X[33059] <= 0.09\nentropy = 0.918\nsamples = 3\nvalue = [1, 2]"] ;
402 -> 403 ;
404 [label="entropy = 0.0\nsamples = 2\nvalue = [0, 2]"] ;
403 -> 404 ;
405 [label="entropy = 0.0\nsamples = 1\nvalue = [1, 0]"] ;
403 -> 405 ;
406 [label="entropy = 0.0\nsamples = 1\nvalue = [1, 0]"] ;
402 -> 406 ;
407 [label="entropy = 0.0\nsamples = 1\nvalue = [0, 1]"] ;
399 -> 407 ;
408 [label="entropy = 0.0\nsamples = 3\nvalue = [0, 3]"] ;
398 -> 408 ;
409 [label="entropy = 0.0\nsamples = 3\nvalue = [0, 3]"] ;
31 -> 409 ;
410 [label="entropy = 0.0\nsamples = 3\nvalue = [0, 3]"] ;
30 -> 410 ;
411 [label="entropy = 0.0\nsamples = 3\nvalue = [0, 3]"] ;
29 -> 411 ;
412 [label="entropy = 0.0\nsamples = 3\nvalue = [0, 3]"] ;
28 -> 412 ;
413 [label="entropy = 0.0\nsamples = 3\nvalue = [0, 3]"] ;
27 -> 413 ;
414 [label="entropy = 0.0\nsamples = 3\nvalue = [0, 3]"] ;
26 -> 414 ;
415 [label="entropy = 0.0\nsamples = 4\nvalue = [0, 4]"] ;
25 -> 415 ;
416 [label="entropy = 0.0\nsamples = 4\nvalue = [0, 4]"] ;
24 -> 416 ;
417 [label="X[1002] <= 0.28\nentropy = 0.999\nsamples = 29\nvalue = [15, 14]"] ;
23 -> 417 ;
418 [label="X[24634] <= 0.023\nentropy = 0.99\nsamples = 25\nvalue = [11, 14]"] ;
417 -> 418 ;
419 [label="X[3731] <= 0.02\nentropy = 0.918\nsamples = 21\nvalue = [7, 14]"] ;
418 -> 419 ;
420 [label="X[19858] <= 0.089\nentropy = 0.831\nsamples = 19\nvalue = [5, 14]"] ;
419 -> 420 ;
421 [label="X[25002] <= 0.12\nentropy = 0.672\nsamples = 17\nvalue = [3, 14]"] ;
420 -> 421 ;
422 [label="X[26997] <= 0.137\nentropy = 0.544\nsamples = 16\nvalue = [2, 14]"] ;
421 -> 422 ;
423 [label="X[32609] <= 0.203\nentropy = 0.353\nsamples = 15\nvalue = [1, 14]"] ;
422 -> 423 ;
424 [label="entropy = 0.0\nsamples = 14\nvalue = [0, 14]"] ;
423 -> 424 ;
425 [label="entropy = 0.0\nsamples = 1\nvalue = [1, 0]"] ;
423 -> 425 ;
426 [label="entropy = 0.0\nsamples = 1\nvalue = [1, 0]"] ;
422 -> 426 ;
427 [label="entropy = 0.0\nsamples = 1\nvalue = [1, 0]"] ;
421 -> 427 ;
428 [label="entropy = 0.0\nsamples = 2\nvalue = [2, 0]"] ;
420 -> 428 ;
429 [label="entropy = 0.0\nsamples = 2\nvalue = [2, 0]"] ;
419 -> 429 ;
430 [label="entropy = 0.0\nsamples = 4\nvalue = [4, 0]"] ;
418 -> 430 ;
431 [label="entropy = 0.0\nsamples = 4\nvalue = [4, 0]"] ;
417 -> 431 ;
432 [label="entropy = 0.0\nsamples = 47\nvalue = [47, 0]"] ;
22 -> 432 ;
433 [label="X[34964] <= 0.179\nentropy = 0.997\nsamples = 30\nvalue = [16, 14]"] ;
21 -> 433 ;
434 [label="entropy = 0.0\nsamples = 7\nvalue = [0, 7]"] ;
433 -> 434 ;
435 [label="X[23033] <= 0.267\nentropy = 0.887\nsamples = 23\nvalue = [16, 7]"] ;
433 -> 435 ;
436 [label="X[34527] <= 0.039\nentropy = 0.792\nsamples = 21\nvalue = [16, 5]"] ;
435 -> 436 ;
437 [label="X[34964] <= 0.3\nentropy = 0.896\nsamples = 16\nvalue = [11, 5]"] ;
436 -> 437 ;
438 [label="X[12606] <= 0.018\nentropy = 0.985\nsamples = 7\nvalue = [3, 4]"] ;
437 -> 438 ;
439 [label="X[29335] <= 0.24\nentropy = 0.722\nsamples = 5\nvalue = [1, 4]"] ;
438 -> 439 ;
440 [label="entropy = 0.0\nsamples = 4\nvalue = [0, 4]"] ;
439 -> 440 ;
441 [label="entropy = 0.0\nsamples = 1\nvalue = [1, 0]"] ;
439 -> 441 ;
442 [label="entropy = 0.0\nsamples = 2\nvalue = [2, 0]"] ;
438 -> 442 ;
443 [label="X[12612] <= 0.355\nentropy = 0.503\nsamples = 9\nvalue = [8, 1]"] ;
437 -> 443 ;
444 [label="entropy = 0.0\nsamples = 8\nvalue = [8, 0]"] ;
443 -> 444 ;
445 [label="entropy = 0.0\nsamples = 1\nvalue = [0, 1]"] ;
443 -> 445 ;
446 [label="entropy = 0.0\nsamples = 5\nvalue = [5, 0]"] ;
436 -> 446 ;
447 [label="entropy = 0.0\nsamples = 2\nvalue = [0, 2]"] ;
435 -> 447 ;
448 [label="entropy = 0.0\nsamples = 4\nvalue = [0, 4]"] ;
20 -> 448 ;
449 [label="X[18132] <= 0.303\nentropy = 0.592\nsamples = 7\nvalue = [1, 6]"] ;
19 -> 449 ;
450 [label="entropy = 0.0\nsamples = 6\nvalue = [0, 6]"] ;
449 -> 450 ;
451 [label="entropy = 0.0\nsamples = 1\nvalue = [1, 0]"] ;
449 -> 451 ;
452 [label="X[7478] <= 0.034\nentropy = 0.964\nsamples = 18\nvalue = [7, 11]"] ;
18 -> 452 ;
453 [label="X[16728] <= 0.176\nentropy = 0.75\nsamples = 14\nvalue = [3, 11]"] ;
452 -> 453 ;
454 [label="X[6212] <= 0.319\nentropy = 0.619\nsamples = 13\nvalue = [2, 11]"] ;
453 -> 454 ;
455 [label="X[23726] <= 0.06\nentropy = 0.414\nsamples = 12\nvalue = [1, 11]"] ;
454 -> 455 ;
456 [label="entropy = 0.0\nsamples = 11\nvalue = [0, 11]"] ;
455 -> 456 ;
457 [label="entropy = 0.0\nsamples = 1\nvalue = [1, 0]"] ;
455 -> 457 ;
458 [label="entropy = 0.0\nsamples = 1\nvalue = [1, 0]"] ;
454 -> 458 ;
459 [label="entropy = 0.0\nsamples = 1\nvalue = [1, 0]"] ;
453 -> 459 ;
460 [label="entropy = 0.0\nsamples = 4\nvalue = [4, 0]"] ;
452 -> 460 ;
461 [label="X[22459] <= 0.019\nentropy = 0.918\nsamples = 15\nvalue = [5, 10]"] ;
17 -> 461 ;
462 [label="X[2672] <= 0.067\nentropy = 0.65\nsamples = 12\nvalue = [2, 10]"] ;
461 -> 462 ;
463 [label="X[21113] <= 0.284\nentropy = 0.439\nsamples = 11\nvalue = [1, 10]"] ;
462 -> 463 ;
464 [label="entropy = 0.0\nsamples = 10\nvalue = [0, 10]"] ;
463 -> 464 ;
465 [label="entropy = 0.0\nsamples = 1\nvalue = [1, 0]"] ;
463 -> 465 ;
466 [label="entropy = 0.0\nsamples = 1\nvalue = [1, 0]"] ;
462 -> 466 ;
467 [label="entropy = 0.0\nsamples = 3\nvalue = [3, 0]"] ;
461 -> 467 ;
468 [label="entropy = 0.0\nsamples = 5\nvalue = [0, 5]"] ;
16 -> 468 ;
469 [label="X[9427] <= 0.041\nentropy = 0.544\nsamples = 8\nvalue = [1, 7]"] ;
15 -> 469 ;
470 [label="entropy = 0.0\nsamples = 7\nvalue = [0, 7]"] ;
469 -> 470 ;
471 [label="entropy = 0.0\nsamples = 1\nvalue = [1, 0]"] ;
469 -> 471 ;
472 [label="entropy = 0.0\nsamples = 38\nvalue = [38, 0]"] ;
14 -> 472 ;
473 [label="X[32163] <= 0.082\nentropy = 0.122\nsamples = 60\nvalue = [59, 1]"] ;
13 -> 473 ;
474 [label="entropy = 0.0\nsamples = 59\nvalue = [59, 0]"] ;
473 -> 474 ;
475 [label="entropy = 0.0\nsamples = 1\nvalue = [0, 1]"] ;
473 -> 475 ;
476 [label="entropy = 0.0\nsamples = 51\nvalue = [51, 0]"] ;
12 -> 476 ;
477 [label="entropy = 0.0\nsamples = 58\nvalue = [58, 0]"] ;
11 -> 477 ;
478 [label="X[6107] <= 0.282\nentropy = 0.356\nsamples = 565\nvalue = [527, 38]"] ;
10 -> 478 ;
479 [label="X[9965] <= 0.148\nentropy = 0.336\nsamples = 562\nvalue = [527, 35]"] ;
478 -> 479 ;
480 [label="X[24870] <= 0.037\nentropy = 0.316\nsamples = 559\nvalue = [527, 32]"] ;
479 -> 480 ;
481 [label="entropy = 0.0\nsamples = 130\nvalue = [130, 0]"] ;
480 -> 481 ;
482 [label="X[17148] <= 0.127\nentropy = 0.383\nsamples = 429\nvalue = [397, 32]"] ;
480 -> 482 ;
483 [label="X[8245] <= 0.154\nentropy = 0.352\nsamples = 422\nvalue = [394, 28]"] ;
482 -> 483 ;
484 [label="X[28661] <= 0.183\nentropy = 0.327\nsamples = 418\nvalue = [393, 25]"] ;
483 -> 484 ;
485 [label="X[24634] <= 0.15\nentropy = 0.308\nsamples = 416\nvalue = [393, 23]"] ;
484 -> 485 ;
486 [label="X[34527] <= 0.165\nentropy = 0.289\nsamples = 414\nvalue = [393, 21]"] ;
485 -> 486 ;
487 [label="X[22448] <= 0.059\nentropy = 0.27\nsamples = 411\nvalue = [392, 19]"] ;
486 -> 487 ;
488 [label="X[16561] <= 0.089\nentropy = 0.25\nsamples = 408\nvalue = [391, 17]"] ;
487 -> 488 ;
489 [label="X[34964] <= 0.399\nentropy = 0.229\nsamples = 404\nvalue = [389, 15]"] ;
488 -> 489 ;
490 [label="X[11440] <= 0.008\nentropy = 0.207\nsamples = 399\nvalue = [386, 13]"] ;
489 -> 490 ;
491 [label="X[1007] <= 0.112\nentropy = 0.269\nsamples = 283\nvalue = [270, 13]"] ;
490 -> 491 ;
492 [label="X[20150] <= 0.257\nentropy = 0.225\nsamples = 275\nvalue = [265, 10]"] ;
491 -> 492 ;
493 [label="X[35344] <= 0.038\nentropy = 0.208\nsamples = 274\nvalue = [265, 9]"] ;
492 -> 493 ;
494 [label="X[32430] <= 0.168\nentropy = 0.128\nsamples = 227\nvalue = [223, 4]"] ;
493 -> 494 ;
495 [label="X[30246] <= 0.08\nentropy = 0.102\nsamples = 226\nvalue = [223, 3]"] ;
494 -> 495 ;
496 [label="X[35988] <= 0.175\nentropy = 0.073\nsamples = 225\nvalue = [223, 2]"] ;
495 -> 496 ;
497 [label="X[11137] <= 0.24\nentropy = 0.041\nsamples = 224\nvalue = [223, 1]"] ;
496 -> 497 ;
498 [label="entropy = 0.0\nsamples = 223\nvalue = [223, 0]"] ;
497 -> 498 ;
499 [label="entropy = 0.0\nsamples = 1\nvalue = [0, 1]"] ;
497 -> 499 ;
500 [label="entropy = 0.0\nsamples = 1\nvalue = [0, 1]"] ;
496 -> 500 ;
501 [label="entropy = 0.0\nsamples = 1\nvalue = [0, 1]"] ;
495 -> 501 ;
502 [label="entropy = 0.0\nsamples = 1\nvalue = [0, 1]"] ;
494 -> 502 ;
503 [label="X[1002] <= 0.088\nentropy = 0.489\nsamples = 47\nvalue = [42, 5]"] ;
493 -> 503 ;
504 [label="X[31708] <= 0.039\nentropy = 0.353\nsamples = 45\nvalue = [42, 3]"] ;
503 -> 504 ;
505 [label="X[15266] <= 0.105\nentropy = 0.165\nsamples = 41\nvalue = [40, 1]"] ;
504 -> 505 ;
506 [label="entropy = 0.0\nsamples = 40\nvalue = [40, 0]"] ;
505 -> 506 ;
507 [label="entropy = 0.0\nsamples = 1\nvalue = [0, 1]"] ;
505 -> 507 ;
508 [label="X[24870] <= 0.073\nentropy = 1.0\nsamples = 4\nvalue = [2, 2]"] ;
504 -> 508 ;
509 [label="entropy = 0.0\nsamples = 2\nvalue = [0, 2]"] ;
508 -> 509 ;
510 [label="entropy = 0.0\nsamples = 2\nvalue = [2, 0]"] ;
508 -> 510 ;
511 [label="entropy = 0.0\nsamples = 2\nvalue = [0, 2]"] ;
503 -> 511 ;
512 [label="entropy = 0.0\nsamples = 1\nvalue = [0, 1]"] ;
492 -> 512 ;
513 [label="X[22459] <= 0.028\nentropy = 0.954\nsamples = 8\nvalue = [5, 3]"] ;
491 -> 513 ;
514 [label="X[28916] <= 0.045\nentropy = 0.811\nsamples = 4\nvalue = [1, 3]"] ;
513 -> 514 ;
515 [label="entropy = 0.0\nsamples = 3\nvalue = [0, 3]"] ;
514 -> 515 ;
516 [label="entropy = 0.0\nsamples = 1\nvalue = [1, 0]"] ;
514 -> 516 ;
517 [label="entropy = 0.0\nsamples = 4\nvalue = [4, 0]"] ;
513 -> 517 ;
518 [label="entropy = 0.0\nsamples = 116\nvalue = [116, 0]"] ;
490 -> 518 ;
519 [label="X[34964] <= 0.426\nentropy = 0.971\nsamples = 5\nvalue = [3, 2]"] ;
489 -> 519 ;
520 [label="entropy = 0.0\nsamples = 2\nvalue = [0, 2]"] ;
519 -> 520 ;
521 [label="entropy = 0.0\nsamples = 3\nvalue = [3, 0]"] ;
519 -> 521 ;
522 [label="X[10892] <= 0.218\nentropy = 1.0\nsamples = 4\nvalue = [2, 2]"] ;
488 -> 522 ;
523 [label="X[1391] <= 0.086\nentropy = 0.918\nsamples = 3\nvalue = [1, 2]"] ;
522 -> 523 ;
524 [label="entropy = 0.0\nsamples = 2\nvalue = [0, 2]"] ;
523 -> 524 ;
525 [label="entropy = 0.0\nsamples = 1\nvalue = [1, 0]"] ;
523 -> 525 ;
526 [label="entropy = 0.0\nsamples = 1\nvalue = [1, 0]"] ;
522 -> 526 ;
527 [label="X[6799] <= 0.058\nentropy = 0.918\nsamples = 3\nvalue = [1, 2]"] ;
487 -> 527 ;
528 [label="entropy = 0.0\nsamples = 2\nvalue = [0, 2]"] ;
527 -> 528 ;
529 [label="entropy = 0.0\nsamples = 1\nvalue = [1, 0]"] ;
527 -> 529 ;
530 [label="X[26137] <= 0.064\nentropy = 0.918\nsamples = 3\nvalue = [1, 2]"] ;
486 -> 530 ;
531 [label="entropy = 0.0\nsamples = 2\nvalue = [0, 2]"] ;
530 -> 531 ;
532 [label="entropy = 0.0\nsamples = 1\nvalue = [1, 0]"] ;
530 -> 532 ;
533 [label="entropy = 0.0\nsamples = 2\nvalue = [0, 2]"] ;
485 -> 533 ;
534 [label="entropy = 0.0\nsamples = 2\nvalue = [0, 2]"] ;
484 -> 534 ;
535 [label="X[11956] <= 0.112\nentropy = 0.811\nsamples = 4\nvalue = [1, 3]"] ;
483 -> 535 ;
536 [label="entropy = 0.0\nsamples = 3\nvalue = [0, 3]"] ;
535 -> 536 ;
537 [label="entropy = 0.0\nsamples = 1\nvalue = [1, 0]"] ;
535 -> 537 ;
538 [label="X[22282] <= 0.02\nentropy = 0.985\nsamples = 7\nvalue = [3, 4]"] ;
482 -> 538 ;
539 [label="X[33364] <= 0.1\nentropy = 0.722\nsamples = 5\nvalue = [1, 4]"] ;
538 -> 539 ;
540 [label="entropy = 0.0\nsamples = 4\nvalue = [0, 4]"] ;
539 -> 540 ;
541 [label="entropy = 0.0\nsamples = 1\nvalue = [1, 0]"] ;
539 -> 541 ;
542 [label="entropy = 0.0\nsamples = 2\nvalue = [2, 0]"] ;
538 -> 542 ;
543 [label="entropy = 0.0\nsamples = 3\nvalue = [0, 3]"] ;
479 -> 543 ;
544 [label="entropy = 0.0\nsamples = 3\nvalue = [0, 3]"] ;
478 -> 544 ;
545 [label="X[1535] <= 0.087\nentropy = 0.871\nsamples = 24\nvalue = [7, 17]"] ;
9 -> 545 ;
546 [label="X[9796] <= 0.119\nentropy = 0.773\nsamples = 22\nvalue = [5, 17]"] ;
545 -> 546 ;
547 [label="X[15220] <= 0.151\nentropy = 0.61\nsamples = 20\nvalue = [3, 17]"] ;
546 -> 547 ;
548 [label="X[11139] <= 0.363\nentropy = 0.485\nsamples = 19\nvalue = [2, 17]"] ;
547 -> 548 ;
549 [label="X[36209] <= 0.085\nentropy = 0.31\nsamples = 18\nvalue = [1, 17]"] ;
548 -> 549 ;
550 [label="entropy = 0.0\nsamples = 17\nvalue = [0, 17]"] ;
549 -> 550 ;
551 [label="entropy = 0.0\nsamples = 1\nvalue = [1, 0]"] ;
549 -> 551 ;
552 [label="entropy = 0.0\nsamples = 1\nvalue = [1, 0]"] ;
548 -> 552 ;
553 [label="entropy = 0.0\nsamples = 1\nvalue = [1, 0]"] ;
547 -> 553 ;
554 [label="entropy = 0.0\nsamples = 2\nvalue = [2, 0]"] ;
546 -> 554 ;
555 [label="entropy = 0.0\nsamples = 2\nvalue = [2, 0]"] ;
545 -> 555 ;
556 [label="entropy = 0.0\nsamples = 143\nvalue = [143, 0]"] ;
8 -> 556 ;
557 [label="entropy = 0.0\nsamples = 179\nvalue = [179, 0]"] ;
7 -> 557 ;
558 [label="X[16561] <= 0.094\nentropy = 0.958\nsamples = 50\nvalue = [19, 31]"] ;
6 -> 558 ;
559 [label="X[11139] <= 0.037\nentropy = 1.0\nsamples = 38\nvalue = [19, 19]"] ;
558 -> 559 ;
560 [label="X[28610] <= 0.027\nentropy = 0.94\nsamples = 28\nvalue = [18, 10]"] ;
559 -> 560 ;
561 [label="X[177] <= 0.035\nentropy = 0.994\nsamples = 22\nvalue = [12, 10]"] ;
560 -> 561 ;
562 [label="X[32017] <= 0.032\nentropy = 0.991\nsamples = 18\nvalue = [8, 10]"] ;
561 -> 562 ;
563 [label="X[29997] <= 0.05\nentropy = 0.918\nsamples = 15\nvalue = [5, 10]"] ;
562 -> 563 ;
564 [label="X[35344] <= 0.016\nentropy = 0.779\nsamples = 13\nvalue = [3, 10]"] ;
563 -> 564 ;
565 [label="X[8272] <= 0.021\nentropy = 0.954\nsamples = 8\nvalue = [3, 5]"] ;
564 -> 565 ;
566 [label="X[26158] <= 0.119\nentropy = 1.0\nsamples = 6\nvalue = [3, 3]"] ;
565 -> 566 ;
567 [label="X[22229] <= 0.223\nentropy = 0.971\nsamples = 5\nvalue = [2, 3]"] ;
566 -> 567 ;
568 [label="entropy = 0.0\nsamples = 2\nvalue = [0, 2]"] ;
567 -> 568 ;
569 [label="X[22562] <= 0.145\nentropy = 0.918\nsamples = 3\nvalue = [2, 1]"] ;
567 -> 569 ;
570 [label="entropy = 0.0\nsamples = 2\nvalue = [2, 0]"] ;
569 -> 570 ;
571 [label="entropy = 0.0\nsamples = 1\nvalue = [0, 1]"] ;
569 -> 571 ;
572 [label="entropy = 0.0\nsamples = 1\nvalue = [1, 0]"] ;
566 -> 572 ;
573 [label="entropy = 0.0\nsamples = 2\nvalue = [0, 2]"] ;
565 -> 573 ;
574 [label="entropy = 0.0\nsamples = 5\nvalue = [0, 5]"] ;
564 -> 574 ;
575 [label="entropy = 0.0\nsamples = 2\nvalue = [2, 0]"] ;
563 -> 575 ;
576 [label="entropy = 0.0\nsamples = 3\nvalue = [3, 0]"] ;
562 -> 576 ;
577 [label="entropy = 0.0\nsamples = 4\nvalue = [4, 0]"] ;
561 -> 577 ;
578 [label="entropy = 0.0\nsamples = 6\nvalue = [6, 0]"] ;
560 -> 578 ;
579 [label="X[1227] <= 0.161\nentropy = 0.469\nsamples = 10\nvalue = [1, 9]"] ;
559 -> 579 ;
580 [label="entropy = 0.0\nsamples = 9\nvalue = [0, 9]"] ;
579 -> 580 ;
581 [label="entropy = 0.0\nsamples = 1\nvalue = [1, 0]"] ;
579 -> 581 ;
582 [label="entropy = 0.0\nsamples = 12\nvalue = [0, 12]"] ;
558 -> 582 ;
583 [label="X[33246] <= 0.107\nentropy = 0.17\nsamples = 516\nvalue = [503, 13]"] ;
5 -> 583 ;
584 [label="X[14654] <= 0.172\nentropy = 0.077\nsamples = 427\nvalue = [423, 4]"] ;
583 -> 584 ;
585 [label="X[15481] <= 0.066\nentropy = 0.06\nsamples = 426\nvalue = [423, 3]"] ;
584 -> 585 ;
586 [label="X[31490] <= 0.176\nentropy = 0.043\nsamples = 425\nvalue = [423, 2]"] ;
585 -> 586 ;
587 [label="X[20900] <= 0.318\nentropy = 0.024\nsamples = 424\nvalue = [423, 1]"] ;
586 -> 587 ;
588 [label="entropy = 0.0\nsamples = 423\nvalue = [423, 0]"] ;
587 -> 588 ;
589 [label="entropy = 0.0\nsamples = 1\nvalue = [0, 1]"] ;
587 -> 589 ;
590 [label="entropy = 0.0\nsamples = 1\nvalue = [0, 1]"] ;
586 -> 590 ;
591 [label="entropy = 0.0\nsamples = 1\nvalue = [0, 1]"] ;
585 -> 591 ;
592 [label="entropy = 0.0\nsamples = 1\nvalue = [0, 1]"] ;
584 -> 592 ;
593 [label="X[29878] <= 0.018\nentropy = 0.473\nsamples = 89\nvalue = [80, 9]"] ;
583 -> 593 ;
594 [label="X[16235] <= 0.114\nentropy = 0.779\nsamples = 39\nvalue = [30, 9]"] ;
593 -> 594 ;
595 [label="X[6996] <= 0.231\nentropy = 0.65\nsamples = 36\nvalue = [30, 6]"] ;
594 -> 595 ;
596 [label="X[34026] <= 0.151\nentropy = 0.592\nsamples = 35\nvalue = [30, 5]"] ;
595 -> 596 ;
597 [label="X[17148] <= 0.202\nentropy = 0.523\nsamples = 34\nvalue = [30, 4]"] ;
596 -> 597 ;
598 [label="X[34074] <= 0.22\nentropy = 0.439\nsamples = 33\nvalue = [30, 3]"] ;
597 -> 598 ;
599 [label="X[22562] <= 0.176\nentropy = 0.337\nsamples = 32\nvalue = [30, 2]"] ;
598 -> 599 ;
600 [label="X[33246] <= 0.499\nentropy = 0.206\nsamples = 31\nvalue = [30, 1]"] ;
599 -> 600 ;
601 [label="entropy = 0.0\nsamples = 30\nvalue = [30, 0]"] ;
600 -> 601 ;
602 [label="entropy = 0.0\nsamples = 1\nvalue = [0, 1]"] ;
600 -> 602 ;
603 [label="entropy = 0.0\nsamples = 1\nvalue = [0, 1]"] ;
599 -> 603 ;
604 [label="entropy = 0.0\nsamples = 1\nvalue = [0, 1]"] ;
598 -> 604 ;
605 [label="entropy = 0.0\nsamples = 1\nvalue = [0, 1]"] ;
597 -> 605 ;
606 [label="entropy = 0.0\nsamples = 1\nvalue = [0, 1]"] ;
596 -> 606 ;
607 [label="entropy = 0.0\nsamples = 1\nvalue = [0, 1]"] ;
595 -> 607 ;
608 [label="entropy = 0.0\nsamples = 3\nvalue = [0, 3]"] ;
594 -> 608 ;
609 [label="entropy = 0.0\nsamples = 50\nvalue = [50, 0]"] ;
593 -> 609 ;
610 [label="entropy = 0.0\nsamples = 335\nvalue = [335, 0]"] ;
4 -> 610 ;
611 [label="X[35589] <= 0.19\nentropy = 0.083\nsamples = 772\nvalue = [764, 8]"] ;
3 -> 611 ;
612 [label="X[35469] <= 0.068\nentropy = 0.066\nsamples = 769\nvalue = [763, 6]"] ;
611 -> 612 ;
613 [label="entropy = 0.0\nsamples = 488\nvalue = [488, 0]"] ;
612 -> 613 ;
614 [label="X[3731] <= 0.108\nentropy = 0.149\nsamples = 281\nvalue = [275, 6]"] ;
612 -> 614 ;
615 [label="X[21564] <= 0.184\nentropy = 0.109\nsamples = 277\nvalue = [273, 4]"] ;
614 -> 615 ;
616 [label="X[1237] <= 0.181\nentropy = 0.087\nsamples = 276\nvalue = [273, 3]"] ;
615 -> 616 ;
617 [label="X[16728] <= 0.139\nentropy = 0.062\nsamples = 275\nvalue = [273, 2]"] ;
616 -> 617 ;
618 [label="X[14866] <= 0.174\nentropy = 0.035\nsamples = 274\nvalue = [273, 1]"] ;
617 -> 618 ;
619 [label="entropy = 0.0\nsamples = 273\nvalue = [273, 0]"] ;
618 -> 619 ;
620 [label="entropy = 0.0\nsamples = 1\nvalue = [0, 1]"] ;
618 -> 620 ;
621 [label="entropy = 0.0\nsamples = 1\nvalue = [0, 1]"] ;
617 -> 621 ;
622 [label="entropy = 0.0\nsamples = 1\nvalue = [0, 1]"] ;
616 -> 622 ;
623 [label="entropy = 0.0\nsamples = 1\nvalue = [0, 1]"] ;
615 -> 623 ;
624 [label="X[8272] <= 0.036\nentropy = 1.0\nsamples = 4\nvalue = [2, 2]"] ;
614 -> 624 ;
625 [label="entropy = 0.0\nsamples = 2\nvalue = [2, 0]"] ;
624 -> 625 ;
626 [label="entropy = 0.0\nsamples = 2\nvalue = [0, 2]"] ;
624 -> 626 ;
627 [label="X[35128] <= 0.046\nentropy = 0.918\nsamples = 3\nvalue = [1, 2]"] ;
611 -> 627 ;
628 [label="entropy = 0.0\nsamples = 2\nvalue = [0, 2]"] ;
627 -> 628 ;
629 [label="entropy = 0.0\nsamples = 1\nvalue = [1, 0]"] ;
627 -> 629 ;
630 [label="X[33246] <= 0.019\nentropy = 0.789\nsamples = 55\nvalue = [13, 42]"] ;
2 -> 630 ;
631 [label="X[7048] <= 0.036\nentropy = 0.672\nsamples = 51\nvalue = [9, 42]"] ;
630 -> 631 ;
632 [label="X[24870] <= 0.053\nentropy = 0.461\nsamples = 41\nvalue = [4, 37]"] ;
631 -> 632 ;
633 [label="X[15071] <= 0.19\nentropy = 0.196\nsamples = 33\nvalue = [1, 32]"] ;
632 -> 633 ;
634 [label="entropy = 0.0\nsamples = 32\nvalue = [0, 32]"] ;
633 -> 634 ;
635 [label="entropy = 0.0\nsamples = 1\nvalue = [1, 0]"] ;
633 -> 635 ;
636 [label="X[9876] <= 0.236\nentropy = 0.954\nsamples = 8\nvalue = [3, 5]"] ;
632 -> 636 ;
637 [label="X[9876] <= 0.203\nentropy = 0.971\nsamples = 5\nvalue = [3, 2]"] ;
636 -> 637 ;
638 [label="X[26001] <= 0.153\nentropy = 0.918\nsamples = 3\nvalue = [1, 2]"] ;
637 -> 638 ;
639 [label="entropy = 0.0\nsamples = 2\nvalue = [0, 2]"] ;
638 -> 639 ;
640 [label="entropy = 0.0\nsamples = 1\nvalue = [1, 0]"] ;
638 -> 640 ;
641 [label="entropy = 0.0\nsamples = 2\nvalue = [2, 0]"] ;
637 -> 641 ;
642 [label="entropy = 0.0\nsamples = 3\nvalue = [0, 3]"] ;
636 -> 642 ;
643 [label="X[7048] <= 0.113\nentropy = 1.0\nsamples = 10\nvalue = [5, 5]"] ;
631 -> 643 ;
644 [label="entropy = 0.0\nsamples = 3\nvalue = [3, 0]"] ;
643 -> 644 ;
645 [label="X[32278] <= 0.099\nentropy = 0.863\nsamples = 7\nvalue = [2, 5]"] ;
643 -> 645 ;
646 [label="X[11142] <= 0.076\nentropy = 0.65\nsamples = 6\nvalue = [1, 5]"] ;
645 -> 646 ;
647 [label="entropy = 0.0\nsamples = 5\nvalue = [0, 5]"] ;
646 -> 647 ;
648 [label="entropy = 0.0\nsamples = 1\nvalue = [1, 0]"] ;
646 -> 648 ;
649 [label="entropy = 0.0\nsamples = 1\nvalue = [1, 0]"] ;
645 -> 649 ;
650 [label="entropy = 0.0\nsamples = 4\nvalue = [4, 0]"] ;
630 -> 650 ;
651 [label="X[34088] <= 0.003\nentropy = 0.103\nsamples = 5096\nvalue = [5027, 69]"] ;
1 -> 651 ;
652 [label="X[9876] <= 0.087\nentropy = 0.179\nsamples = 2112\nvalue = [2055, 57]"] ;
651 -> 652 ;
653 [label="X[36394] <= 0.06\nentropy = 0.156\nsamples = 2081\nvalue = [2034, 47]"] ;
652 -> 653 ;
654 [label="X[16561] <= 0.101\nentropy = 0.066\nsamples = 1159\nvalue = [1150, 9]"] ;
653 -> 654 ;
655 [label="X[27754] <= 0.138\nentropy = 0.047\nsamples = 1152\nvalue = [1146, 6]"] ;
654 -> 655 ;
656 [label="X[13564] <= 0.238\nentropy = 0.04\nsamples = 1151\nvalue = [1146, 5]"] ;
655 -> 656 ;
657 [label="X[22339] <= 0.318\nentropy = 0.033\nsamples = 1150\nvalue = [1146, 4]"] ;
656 -> 657 ;
658 [label="X[10491] <= 0.126\nentropy = 0.026\nsamples = 1149\nvalue = [1146, 3]"] ;
657 -> 658 ;
659 [label="X[32717] <= 0.133\nentropy = 0.018\nsamples = 1148\nvalue = [1146, 2]"] ;
658 -> 659 ;
660 [label="X[16870] <= 0.372\nentropy = 0.01\nsamples = 1147\nvalue = [1146, 1]"] ;
659 -> 660 ;
661 [label="entropy = 0.0\nsamples = 1146\nvalue = [1146, 0]"] ;
660 -> 661 ;
662 [label="entropy = 0.0\nsamples = 1\nvalue = [0, 1]"] ;
660 -> 662 ;
663 [label="entropy = 0.0\nsamples = 1\nvalue = [0, 1]"] ;
659 -> 663 ;
664 [label="entropy = 0.0\nsamples = 1\nvalue = [0, 1]"] ;
658 -> 664 ;
665 [label="entropy = 0.0\nsamples = 1\nvalue = [0, 1]"] ;
657 -> 665 ;
666 [label="entropy = 0.0\nsamples = 1\nvalue = [0, 1]"] ;
656 -> 666 ;
667 [label="entropy = 0.0\nsamples = 1\nvalue = [0, 1]"] ;
655 -> 667 ;
668 [label="X[10048] <= 0.264\nentropy = 0.985\nsamples = 7\nvalue = [4, 3]"] ;
654 -> 668 ;
669 [label="X[33973] <= 0.018\nentropy = 0.811\nsamples = 4\nvalue = [1, 3]"] ;
668 -> 669 ;
670 [label="entropy = 0.0\nsamples = 3\nvalue = [0, 3]"] ;
669 -> 670 ;
671 [label="entropy = 0.0\nsamples = 1\nvalue = [1, 0]"] ;
669 -> 671 ;
672 [label="entropy = 0.0\nsamples = 3\nvalue = [3, 0]"] ;
668 -> 672 ;
673 [label="X[19223] <= 0.007\nentropy = 0.248\nsamples = 922\nvalue = [884, 38]"] ;
653 -> 673 ;
674 [label="X[24870] <= 0.009\nentropy = 0.367\nsamples = 483\nvalue = [449, 34]"] ;
673 -> 674 ;
675 [label="X[749] <= 0.125\nentropy = 0.55\nsamples = 220\nvalue = [192, 28]"] ;
674 -> 675 ;
676 [label="X[23984] <= 0.016\nentropy = 0.515\nsamples = 217\nvalue = [192, 25]"] ;
675 -> 676 ;
677 [label="X[21091] <= 0.083\nentropy = 0.587\nsamples = 177\nvalue = [152, 25]"] ;
676 -> 677 ;
678 [label="X[29997] <= 0.074\nentropy = 0.537\nsamples = 171\nvalue = [150, 21]"] ;
677 -> 678 ;
679 [label="X[15312] <= 0.124\nentropy = 0.493\nsamples = 167\nvalue = [149, 18]"] ;
678 -> 679 ;
680 [label="X[35344] <= 0.086\nentropy = 0.443\nsamples = 163\nvalue = [148, 15]"] ;
679 -> 680 ;
681 [label="X[24634] <= 0.248\nentropy = 0.334\nsamples = 146\nvalue = [137, 9]"] ;
680 -> 681 ;
682 [label="X[31708] <= 0.15\nentropy = 0.28\nsamples = 144\nvalue = [137, 7]"] ;
681 -> 682 ;
683 [label="X[13567] <= 0.175\nentropy = 0.222\nsamples = 140\nvalue = [135, 5]"] ;
682 -> 683 ;
684 [label="X[870] <= 0.156\nentropy = 0.188\nsamples = 139\nvalue = [135, 4]"] ;
683 -> 684 ;
685 [label="X[21056] <= 0.312\nentropy = 0.151\nsamples = 138\nvalue = [135, 3]"] ;
684 -> 685 ;
686 [label="X[25637] <= 0.171\nentropy = 0.11\nsamples = 137\nvalue = [135, 2]"] ;
685 -> 686 ;
687 [label="X[36868] <= 0.199\nentropy = 0.063\nsamples = 136\nvalue = [135, 1]"] ;
686 -> 687 ;
688 [label="entropy = 0.0\nsamples = 135\nvalue = [135, 0]"] ;
687 -> 688 ;
689 [label="entropy = 0.0\nsamples = 1\nvalue = [0, 1]"] ;
687 -> 689 ;
690 [label="entropy = 0.0\nsamples = 1\nvalue = [0, 1]"] ;
686 -> 690 ;
691 [label="entropy = 0.0\nsamples = 1\nvalue = [0, 1]"] ;
685 -> 691 ;
692 [label="entropy = 0.0\nsamples = 1\nvalue = [0, 1]"] ;
684 -> 692 ;
693 [label="entropy = 0.0\nsamples = 1\nvalue = [0, 1]"] ;
683 -> 693 ;
694 [label="X[36394] <= 0.087\nentropy = 1.0\nsamples = 4\nvalue = [2, 2]"] ;
682 -> 694 ;
695 [label="entropy = 0.0\nsamples = 2\nvalue = [0, 2]"] ;
694 -> 695 ;
696 [label="entropy = 0.0\nsamples = 2\nvalue = [2, 0]"] ;
694 -> 696 ;
697 [label="entropy = 0.0\nsamples = 2\nvalue = [0, 2]"] ;
681 -> 697 ;
698 [label="X[35344] <= 0.155\nentropy = 0.937\nsamples = 17\nvalue = [11, 6]"] ;
680 -> 698 ;
699 [label="X[36394] <= 0.143\nentropy = 0.918\nsamples = 9\nvalue = [3, 6]"] ;
698 -> 699 ;
700 [label="entropy = 0.0\nsamples = 5\nvalue = [0, 5]"] ;
699 -> 700 ;
701 [label="X[22239] <= 0.101\nentropy = 0.811\nsamples = 4\nvalue = [3, 1]"] ;
699 -> 701 ;
702 [label="entropy = 0.0\nsamples = 3\nvalue = [3, 0]"] ;
701 -> 702 ;
703 [label="entropy = 0.0\nsamples = 1\nvalue = [0, 1]"] ;
701 -> 703 ;
704 [label="entropy = 0.0\nsamples = 8\nvalue = [8, 0]"] ;
698 -> 704 ;
705 [label="X[11526] <= 0.24\nentropy = 0.811\nsamples = 4\nvalue = [1, 3]"] ;
679 -> 705 ;
706 [label="entropy = 0.0\nsamples = 3\nvalue = [0, 3]"] ;
705 -> 706 ;
707 [label="entropy = 0.0\nsamples = 1\nvalue = [1, 0]"] ;
705 -> 707 ;
708 [label="X[3057] <= 0.034\nentropy = 0.811\nsamples = 4\nvalue = [1, 3]"] ;
678 -> 708 ;
709 [label="entropy = 0.0\nsamples = 3\nvalue = [0, 3]"] ;
708 -> 709 ;
710 [label="entropy = 0.0\nsamples = 1\nvalue = [1, 0]"] ;
708 -> 710 ;
711 [label="X[21091] <= 0.177\nentropy = 0.918\nsamples = 6\nvalue = [2, 4]"] ;
677 -> 711 ;
712 [label="entropy = 0.0\nsamples = 4\nvalue = [0, 4]"] ;
711 -> 712 ;
713 [label="entropy = 0.0\nsamples = 2\nvalue = [2, 0]"] ;
711 -> 713 ;
714 [label="entropy = 0.0\nsamples = 40\nvalue = [40, 0]"] ;
676 -> 714 ;
715 [label="entropy = 0.0\nsamples = 3\nvalue = [0, 3]"] ;
675 -> 715 ;
716 [label="X[19235] <= 0.155\nentropy = 0.157\nsamples = 263\nvalue = [257, 6]"] ;
674 -> 716 ;
717 [label="X[7048] <= 0.16\nentropy = 0.115\nsamples = 260\nvalue = [256, 4]"] ;
716 -> 717 ;
718 [label="X[21962] <= 0.244\nentropy = 0.067\nsamples = 252\nvalue = [250, 2]"] ;
717 -> 718 ;
719 [label="X[15359] <= 0.268\nentropy = 0.037\nsamples = 251\nvalue = [250, 1]"] ;
718 -> 719 ;
720 [label="entropy = 0.0\nsamples = 250\nvalue = [250, 0]"] ;
719 -> 720 ;
721 [label="entropy = 0.0\nsamples = 1\nvalue = [0, 1]"] ;
719 -> 721 ;
722 [label="entropy = 0.0\nsamples = 1\nvalue = [0, 1]"] ;
718 -> 722 ;
723 [label="X[22683] <= 0.045\nentropy = 0.811\nsamples = 8\nvalue = [6, 2]"] ;
717 -> 723 ;
724 [label="X[33767] <= 0.165\nentropy = 1.0\nsamples = 4\nvalue = [2, 2]"] ;
723 -> 724 ;
725 [label="entropy = 0.0\nsamples = 2\nvalue = [0, 2]"] ;
724 -> 725 ;
726 [label="entropy = 0.0\nsamples = 2\nvalue = [2, 0]"] ;
724 -> 726 ;
727 [label="entropy = 0.0\nsamples = 4\nvalue = [4, 0]"] ;
723 -> 727 ;
728 [label="X[870] <= 0.138\nentropy = 0.918\nsamples = 3\nvalue = [1, 2]"] ;
716 -> 728 ;
729 [label="entropy = 0.0\nsamples = 2\nvalue = [0, 2]"] ;
728 -> 729 ;
730 [label="entropy = 0.0\nsamples = 1\nvalue = [1, 0]"] ;
728 -> 730 ;
731 [label="X[24010] <= 0.13\nentropy = 0.075\nsamples = 439\nvalue = [435, 4]"] ;
673 -> 731 ;
732 [label="X[34510] <= 0.199\nentropy = 0.042\nsamples = 434\nvalue = [432, 2]"] ;
731 -> 732 ;
733 [label="X[36172] <= 0.237\nentropy = 0.024\nsamples = 433\nvalue = [432, 1]"] ;
732 -> 733 ;
734 [label="entropy = 0.0\nsamples = 432\nvalue = [432, 0]"] ;
733 -> 734 ;
735 [label="entropy = 0.0\nsamples = 1\nvalue = [0, 1]"] ;
733 -> 735 ;
736 [label="entropy = 0.0\nsamples = 1\nvalue = [0, 1]"] ;
732 -> 736 ;
737 [label="X[22459] <= 0.054\nentropy = 0.971\nsamples = 5\nvalue = [3, 2]"] ;
731 -> 737 ;
738 [label="entropy = 0.0\nsamples = 3\nvalue = [3, 0]"] ;
737 -> 738 ;
739 [label="entropy = 0.0\nsamples = 2\nvalue = [0, 2]"] ;
737 -> 739 ;
740 [label="X[9423] <= 0.015\nentropy = 0.907\nsamples = 31\nvalue = [21, 10]"] ;
652 -> 740 ;
741 [label="X[1002] <= 0.054\nentropy = 0.98\nsamples = 24\nvalue = [14, 10]"] ;
740 -> 741 ;
742 [label="X[35344] <= 0.041\nentropy = 0.998\nsamples = 19\nvalue = [9, 10]"] ;
741 -> 742 ;
743 [label="X[22951] <= 0.008\nentropy = 0.684\nsamples = 11\nvalue = [2, 9]"] ;
742 -> 743 ;
744 [label="entropy = 0.0\nsamples = 8\nvalue = [0, 8]"] ;
743 -> 744 ;
745 [label="X[10988] <= 0.106\nentropy = 0.918\nsamples = 3\nvalue = [2, 1]"] ;
743 -> 745 ;
746 [label="entropy = 0.0\nsamples = 2\nvalue = [2, 0]"] ;
745 -> 746 ;
747 [label="entropy = 0.0\nsamples = 1\nvalue = [0, 1]"] ;
745 -> 747 ;
748 [label="X[25279] <= 0.136\nentropy = 0.544\nsamples = 8\nvalue = [7, 1]"] ;
742 -> 748 ;
749 [label="entropy = 0.0\nsamples = 7\nvalue = [7, 0]"] ;
748 -> 749 ;
750 [label="entropy = 0.0\nsamples = 1\nvalue = [0, 1]"] ;
748 -> 750 ;
751 [label="entropy = 0.0\nsamples = 5\nvalue = [5, 0]"] ;
741 -> 751 ;
752 [label="entropy = 0.0\nsamples = 7\nvalue = [7, 0]"] ;
740 -> 752 ;
753 [label="X[21091] <= 0.216\nentropy = 0.038\nsamples = 2984\nvalue = [2972, 12]"] ;
651 -> 753 ;
754 [label="X[34088] <= 0.044\nentropy = 0.03\nsamples = 2974\nvalue = [2965, 9]"] ;
753 -> 754 ;
755 [label="entropy = 0.0\nsamples = 1511\nvalue = [1511, 0]"] ;
754 -> 755 ;
756 [label="X[5877] <= 0.165\nentropy = 0.054\nsamples = 1463\nvalue = [1454, 9]"] ;
754 -> 756 ;
757 [label="X[36454] <= 0.158\nentropy = 0.044\nsamples = 1453\nvalue = [1446, 7]"] ;
756 -> 757 ;
758 [label="X[6339] <= 0.207\nentropy = 0.039\nsamples = 1452\nvalue = [1446, 6]"] ;
757 -> 758 ;
759 [label="X[33868] <= 0.341\nentropy = 0.033\nsamples = 1451\nvalue = [1446, 5]"] ;
758 -> 759 ;
760 [label="X[26344] <= 0.233\nentropy = 0.027\nsamples = 1450\nvalue = [1446, 4]"] ;
759 -> 760 ;
761 [label="X[28173] <= 0.2\nentropy = 0.021\nsamples = 1449\nvalue = [1446, 3]"] ;
760 -> 761 ;
762 [label="X[21186] <= 0.158\nentropy = 0.015\nsamples = 1448\nvalue = [1446, 2]"] ;
761 -> 762 ;
763 [label="X[16190] <= 0.205\nentropy = 0.008\nsamples = 1447\nvalue = [1446, 1]"] ;
762 -> 763 ;
764 [label="entropy = 0.0\nsamples = 1446\nvalue = [1446, 0]"] ;
763 -> 764 ;
765 [label="entropy = 0.0\nsamples = 1\nvalue = [0, 1]"] ;
763 -> 765 ;
766 [label="entropy = 0.0\nsamples = 1\nvalue = [0, 1]"] ;
762 -> 766 ;
767 [label="entropy = 0.0\nsamples = 1\nvalue = [0, 1]"] ;
761 -> 767 ;
768 [label="entropy = 0.0\nsamples = 1\nvalue = [0, 1]"] ;
760 -> 768 ;
769 [label="entropy = 0.0\nsamples = 1\nvalue = [0, 1]"] ;
759 -> 769 ;
770 [label="entropy = 0.0\nsamples = 1\nvalue = [0, 1]"] ;
758 -> 770 ;
771 [label="entropy = 0.0\nsamples = 1\nvalue = [0, 1]"] ;
757 -> 771 ;
772 [label="X[36394] <= 0.061\nentropy = 0.722\nsamples = 10\nvalue = [8, 2]"] ;
756 -> 772 ;
773 [label="entropy = 0.0\nsamples = 6\nvalue = [6, 0]"] ;
772 -> 773 ;
774 [label="X[20142] <= 0.035\nentropy = 1.0\nsamples = 4\nvalue = [2, 2]"] ;
772 -> 774 ;
775 [label="X[6321] <= 0.039\nentropy = 0.918\nsamples = 3\nvalue = [1, 2]"] ;
774 -> 775 ;
776 [label="entropy = 0.0\nsamples = 2\nvalue = [0, 2]"] ;
775 -> 776 ;
777 [label="entropy = 0.0\nsamples = 1\nvalue = [1, 0]"] ;
775 -> 777 ;
778 [label="entropy = 0.0\nsamples = 1\nvalue = [1, 0]"] ;
774 -> 778 ;
779 [label="X[34088] <= 0.075\nentropy = 0.881\nsamples = 10\nvalue = [7, 3]"] ;
753 -> 779 ;
780 [label="entropy = 0.0\nsamples = 6\nvalue = [6, 0]"] ;
779 -> 780 ;
781 [label="X[9779] <= 0.091\nentropy = 0.811\nsamples = 4\nvalue = [1, 3]"] ;
779 -> 781 ;
782 [label="entropy = 0.0\nsamples = 3\nvalue = [0, 3]"] ;
781 -> 782 ;
783 [label="entropy = 0.0\nsamples = 1\nvalue = [1, 0]"] ;
781 -> 783 ;
784 [label="X[30484] <= 0.083\nentropy = 0.33\nsamples = 99\nvalue = [6, 93]"] ;
0 -> 784 [labeldistance=2.5, labelangle=-45, headlabel="False"] ;
785 [label="X[30787] <= 0.032\nentropy = 0.291\nsamples = 98\nvalue = [5, 93]"] ;
784 -> 785 ;
786 [label="X[27963] <= 0.29\nentropy = 0.206\nsamples = 93\nvalue = [3, 90]"] ;
785 -> 786 ;
787 [label="entropy = 0.0\nsamples = 74\nvalue = [0, 74]"] ;
786 -> 787 ;
788 [label="X[28405] <= 0.139\nentropy = 0.629\nsamples = 19\nvalue = [3, 16]"] ;
786 -> 788 ;
789 [label="X[33246] <= 0.171\nentropy = 0.503\nsamples = 18\nvalue = [2, 16]"] ;
788 -> 789 ;
790 [label="X[16432] <= 0.176\nentropy = 0.323\nsamples = 17\nvalue = [1, 16]"] ;
789 -> 790 ;
791 [label="entropy = 0.0\nsamples = 16\nvalue = [0, 16]"] ;
790 -> 791 ;
792 [label="entropy = 0.0\nsamples = 1\nvalue = [1, 0]"] ;
790 -> 792 ;
793 [label="entropy = 0.0\nsamples = 1\nvalue = [1, 0]"] ;
789 -> 793 ;
794 [label="entropy = 0.0\nsamples = 1\nvalue = [1, 0]"] ;
788 -> 794 ;
795 [label="X[16561] <= 0.072\nentropy = 0.971\nsamples = 5\nvalue = [2, 3]"] ;
785 -> 795 ;
796 [label="X[15737] <= 0.055\nentropy = 0.918\nsamples = 3\nvalue = [2, 1]"] ;
795 -> 796 ;
797 [label="entropy = 0.0\nsamples = 2\nvalue = [2, 0]"] ;
796 -> 797 ;
798 [label="entropy = 0.0\nsamples = 1\nvalue = [0, 1]"] ;
796 -> 798 ;
799 [label="entropy = 0.0\nsamples = 2\nvalue = [0, 2]"] ;
795 -> 799 ;
800 [label="entropy = 0.0\nsamples = 1\nvalue = [1, 0]"] ;
784 -> 800 ;
}
